0,1,2,3,4
0.017687218,-0.07055536,0.021491429,-0.0030853283,0.014713206
-0.005899237,-0.0016467716,0.0485677,-0.09794274,0.07063542
0.0004431277,0.033446986,-0.011703325,-0.02266103,-0.052345738
-0.010621536,0.09047802,-0.07564514,0.021318257,-0.003807852
-0.0068176803,-0.024063727,-0.012235609,0.047668587,0.01255127
-0.017791217,0.0048013357,-0.073345646,0.06813298,-0.0542088
-0.013304416,0.021018682,-0.02425541,0.014235274,-0.032169145
-0.0039285826,-0.021299863,-0.01922432,-0.028312786,-0.010430084
-0.14440142,0.11964387,-0.05117767,-0.07464938,-0.08003723
0.008602368,0.010494995,-0.012968933,0.024095807,0.007622854
0.0016113378,0.014511367,-0.044280738,-0.004478251,-0.012163558
0.02837549,-0.030187245,-0.0049904035,-0.002599642,0.020590411
-0.0356074,0.018298447,0.028524429,0.00949018,0.02702031
0.12689538,-0.065676965,-0.022622803,-0.13285044,0.084120065
0.08953415,0.0536727,-0.049381316,-0.05984564,-0.11766156
-0.00440447,0.016178563,-0.062228233,0.0011427173,-0.028335191
0.011617897,0.027825624,-0.038989987,0.039900128,0.0080412505
0.057017,-0.08670242,-0.05885647,-0.040821332,-0.08864834
0.042821594,0.031692423,-0.062758066,0.004333101,0.008403356
-0.0888357,0.08487912,0.04578766,-0.017113315,-0.05902769
0.010072985,0.0012548624,-0.03690563,-0.005870596,0.024479311
0.01861475,-0.018967515,0.03394072,-0.01823507,-0.01576237
-0.033897817,-0.009114118,-0.008868677,0.010048863,-0.016556952
-0.045319628,0.019245362,0.00532442,-0.014820142,0.00373863
0.03213245,-0.06690327,-0.036449153,0.032062374,-0.011168169
0.04816493,-0.039015714,0.0010687833,-0.08064827,0.05486092
0.009833722,0.019157501,0.015229418,0.010495562,-0.03183879
0.029661784,0.020981783,0.020291585,-0.03921694,-0.018387994
-0.09542169,0.0345932,-0.0436216,0.02844372,-0.0017942523
0.05946976,0.013680878,-0.19238086,0.12197206,-0.11941771
-0.009522685,0.021307606,0.018434208,-0.035810445,-0.07697625
0.09119257,-0.110346735,-0.021334179,0.033689838,-0.18731597
-0.03331638,0.019439632,-0.009403511,0.03979118,-0.020902064
0.009299162,0.038831666,-0.011545326,-0.06716134,0.01901563
0.008087121,-0.008276425,-0.025474595,0.0007845543,0.040677663
-0.011832678,-0.043191426,0.012115744,-0.01602142,0.052288875
-0.016680893,-0.0068638646,0.038664006,0.006914687,-0.0525435
-0.049951937,-0.036890093,0.01656883,-0.016605522,0.033125143
0.004649297,-0.0029216171,0.007388806,-0.0627024,0.053611893
-0.004346654,0.00026895638,-0.0061934874,-0.025465133,-0.04139344
0.028161066,-0.051356565,0.024447776,-0.024473876,0.063585535
0.0053401943,-0.017198281,0.015409604,0.028515087,-0.020277966
-0.050382763,0.004362822,-0.04588972,0.034240745,0.02005723
-0.04205009,-0.012385063,-0.0024092381,0.0024301969,0.0067789964
0.018095693,0.040385004,0.012332513,-0.020857051,-0.013774544
0.022696756,-0.02087372,-0.022391245,0.023904651,0.0028133814
-0.006888063,-0.025562799,0.037290484,-0.036975253,-0.008881449
0.032795902,-0.021874784,-0.040243123,0.016947223,-0.019177537
0.0027771485,-0.038050555,0.0061507584,0.014175227,0.026832286
0.04499356,-0.0025290754,-0.03578788,-0.05072556,-0.039138004
-0.016559314,0.04394752,0.01282225,-0.11837752,-0.03681212
-0.00016612875,-0.009574193,0.0055039045,-0.0098886825,0.012390012
0.017992537,-0.042975865,0.0065324646,0.0013069835,0.014025964
0.027784925,-0.08577735,-0.01593254,0.0577943,0.03216752
0.03503191,0.005817634,0.014968464,-0.009013093,0.027877599
-0.08160888,-0.0003764319,-0.004960956,0.017762523,0.049077425
-0.034222793,0.01611751,-0.019007115,-0.031127444,0.028836466
-0.09907475,0.06995543,-0.060666904,-0.019132078,0.023235228
-0.13773856,0.06211106,0.031788394,-0.12688789,-0.019358253
0.0011086682,-0.04161758,0.0358469,0.02695599,-0.034262422
-0.0010634265,0.009134838,0.009149249,0.049971513,0.028863143
-0.011491776,0.14212072,-0.16441035,-0.057797097,0.019991755
-0.11981429,0.1492714,-0.1323342,-0.04848663,-0.11542088
0.037776522,0.004986409,-0.053596754,-0.028404245,0.052509487
-0.009437988,0.03006946,0.026211455,-0.003970846,0.027440779
-0.077571705,-0.09755027,-0.030269934,0.008093806,0.053167574
0.0046288026,0.016149871,-0.016572734,-0.0010233688,-0.04923578
-0.021551488,0.03982021,0.0072179195,-0.023279717,-0.019126879
0.097509906,-0.060225092,-0.08449581,-0.070427634,-0.10313777
-0.066296175,0.076187156,0.010022289,-0.09860449,-0.0658799
0.058578316,0.012265915,-0.03305106,0.022758327,-0.09549312
0.050602816,0.033838514,0.05029446,0.01234765,-0.09376948
-0.0134024415,0.012816992,-0.008827848,-0.021495335,-0.013814719
0.020367345,-0.05000504,-0.011963524,0.01068488,-0.01092717
-0.033297475,-0.006547656,-0.044394184,0.04047088,-0.032531135
0.026231777,0.0069405106,-0.015803082,-0.0010143069,0.027067738
-0.055848613,-0.0069836327,0.0004103451,-0.009564556,0.03598395
-0.01621283,-0.027317299,-0.014470632,-0.0022701132,0.04009661
-0.035018113,0.006403566,0.07140758,-0.011229211,0.011488764
0.00643842,0.038433135,0.022626562,-0.13012032,-0.051883116
-0.008745764,0.060821936,0.001319903,-0.14977683,-0.058838896
-0.040674597,0.00058616966,0.05063203,0.008489244,0.03184738
0.01913764,-0.0054943743,-0.008457691,0.025639579,0.024098922
-0.027318325,0.0033305383,-0.006262873,0.021062091,0.044488933
0.022687068,-0.013802191,0.046402346,0.019832285,-0.029958514
-0.103158504,0.06414343,-0.057413816,-0.0972963,-0.10665665
-0.01632553,-0.010487982,0.0074299807,0.00444768,0.017592112
0.039018817,-0.00390879,-0.042360086,-0.061128717,-0.035423152
-0.04698657,-0.026890649,-0.06435001,0.014091606,0.06786049
0.0462939,0.06860057,-0.09615083,-0.09787054,-0.07023192
0.0021161274,-0.050001442,0.022349436,0.026668329,0.0025210332
0.026055971,-0.009301207,0.03302073,0.03476002,-0.009673085
0.027942924,0.065353535,-0.051875774,0.009256382,-0.03417236
0.0070941355,-0.011541174,0.0013641673,-0.0145877525,0.013315488
0.044201218,-0.12574567,-0.015663398,0.0052266405,0.034390237
-0.03735253,-0.04265029,0.021236606,-0.017059572,0.029282756
0.023942772,0.053743884,0.011977208,-0.026228959,-0.04119702
-0.20226793,-0.14024957,0.042967472,0.018279817,0.09998864
-0.054462623,0.032745704,-0.0059629697,0.0096453205,-0.07278621
-0.020144692,0.06979463,-0.03848774,0.011897122,-0.098647185
0.070239194,0.08138979,-0.01739545,0.007608773,-0.16333129
-0.03505926,0.15542994,-0.076872036,-0.087100476,-0.1275992
0.007993905,-0.13465425,0.13765664,-0.09888547,-0.15571453
-0.086707234,-0.08047322,0.08211035,-0.056765035,-0.086932816
-0.1248828,0.1214642,-0.09392547,0.07154884,-0.06474108
0.028498,-0.014638321,-0.038318187,0.0016747799,-0.015149008
-0.072635934,0.10440429,-0.019971268,-0.04907803,-0.11181538
-0.033057153,-0.010992907,-0.039470397,-0.0028036018,0.009051533
0.00856566,0.036594663,-0.025494825,-0.026342137,0.039172404
0.02415526,0.037056353,-0.06428807,0.03212659,-0.07698484
-0.050365128,-0.04378424,0.06823495,-0.0015544052,-0.026102098
-0.0646831,-0.067265876,0.14080216,-0.052425314,-0.0898902
-0.0021495817,-0.07358697,0.0105878655,0.0030048972,0.07236044
0.010095789,-0.0012230453,-0.024691323,-0.01466736,-0.023596646
-0.10824049,0.090743035,-0.096593276,-0.083159596,0.025915274
0.054781742,0.07294569,-0.020598507,-0.0561188,0.024398522
0.032760702,0.021448407,-0.017418884,-0.029201098,-0.019526336
-0.037116162,-0.05631079,-0.016493933,0.05088192,0.056126494
-0.028325075,0.024743464,-0.048451927,-0.011787139,0.045215804
-0.13901995,0.11285496,-0.12218735,-0.124952026,-0.11555045
0.02138002,-0.13858357,-0.0029705886,0.014392729,0.04714113
0.021286113,-0.035440765,-0.009810411,-0.037015457,0.03870082
-0.0019755797,0.12407336,0.014450172,-0.058020655,0.0071059377
-0.008134708,-0.029252283,-0.0043912246,-0.0040718536,0.009428563
-0.056451075,0.068087764,-0.014546806,0.038293775,-0.030599521
-0.017737452,-0.034136567,-0.0073070824,-0.0128533365,0.0044933003
0.15450735,-0.14265896,-0.1760357,-0.09042106,0.113592
-0.013017396,0.034112353,-0.0036131993,-0.02033456,0.036849413
0.025327146,-0.024177937,-0.008772177,0.02615121,0.004824459
0.010946028,-0.012369217,0.016956355,-0.017254889,-0.0038190603
-0.009142497,0.025712896,-0.0394952,-0.015371917,0.030512035
0.01967512,0.0072375764,-0.0040150797,0.033242553,0.001135425
-0.048501346,-0.011155763,0.0804819,0.010438021,-0.032675706
-0.06444422,0.01881712,0.0289485,0.036091954,0.014948745
-0.021818127,-0.020586787,-0.022114705,-0.009525528,-0.00082730595
-0.03136081,0.10054268,-0.108410455,-0.041591667,-0.044476375
-0.0012944116,0.0038049999,0.017679825,-0.010408132,0.02748453
0.011556812,-0.017791368,0.03150272,-0.00095749024,0.027808728
-0.0015960557,-0.036583595,0.0014107089,0.03065196,-0.024787007
-0.011230001,0.00015347468,0.0075322567,-0.025039371,-0.03753693
-0.010564802,0.0016166015,-0.16241756,0.045895014,0.066184245
-0.03603817,0.026149966,-0.024661068,0.002216371,-0.011516594
0.001264892,0.004753387,-0.04629041,-0.012649513,0.017870178
0.014758247,-0.025826193,0.019980717,0.021942291,0.038207944
-0.088827774,0.04467027,0.035028346,0.071103424,-0.046143487
-0.089488626,0.12678689,-0.019376539,-0.114668906,-0.070123136
0.029461361,-0.004931381,0.023030324,-0.021702053,0.033062395
0.05436107,0.046432037,-0.06779124,-0.0641011,-0.09688898
-0.013941496,0.0056937467,-0.007534261,-0.03722088,-0.0006938961
0.04940079,0.0019922554,-0.012076852,-0.11754138,-0.09339291
-0.004178845,-0.048689775,0.0046431026,0.035225153,0.01448379
0.033045746,-0.0020708358,0.011867398,-0.009243093,0.02423927
0.042152427,-0.018630495,-0.023514148,0.00072376383,0.0046083136
-0.056235775,0.040382475,0.004521324,0.0440444,0.018131282
-0.0076387306,-0.08108075,-0.11656184,0.04120475,0.11659799
-0.031089965,-0.008478304,-0.046209782,-0.012781206,0.028452622
0.057581145,0.009806193,-0.020163916,-0.05655113,0.036666263
-0.024685731,0.03229464,-0.016788742,0.015045727,-0.0049316287
0.016816132,-0.10342497,0.067458615,-0.060227465,-0.06455628
-0.093071535,0.058061548,0.028791511,-0.11989826,-0.03947747
-0.017933551,-0.09907836,0.14826246,-0.12603287,-0.0067566754
0.12590766,0.10023475,-0.043732524,-0.020113157,-0.12522997
-0.0076850103,-0.10815859,0.047763377,0.013161811,0.028158862
-0.015214712,-0.074038856,0.024818052,0.039268423,0.042638637
0.05344657,0.0047370507,0.015733298,-0.031007497,-0.0014084651
0.009133628,-0.0025913164,0.032950472,-0.021825252,0.065356955
-0.12725589,0.068321906,0.01728478,-0.018382153,-0.019421712
0.010271802,-0.022391284,-0.0012094065,0.0035146105,-0.013191672
0.012033999,-0.021058159,-0.051338248,0.045254022,-0.009923709
0.002688624,0.0065451083,0.0027231833,-0.0015165627,-0.00877865
-0.03989066,-0.024918659,-0.016541736,0.0056096497,0.021417364
0.022401085,0.018571507,-0.014098428,-0.026194477,-0.023674903
0.045614395,0.03916921,-0.033701457,-0.036429483,0.047343917
0.0039301203,0.028376793,0.011923287,-0.018668808,-0.024681395
0.029917793,-0.06983653,0.06419535,-0.05354669,0.009446705
0.010456908,-0.037448496,-0.00964431,0.0024141467,-0.0013132857
0.0054864646,-0.026313463,0.011393869,-0.02598888,-0.003129657
0.03840065,0.023134392,-0.037890695,0.016585896,0.021077998
-0.09283419,0.040321417,0.04482121,0.015629346,0.038762864
0.06638188,-0.09859738,0.054153632,-0.07082618,-0.0985943
-0.029901283,-0.035812855,0.03187579,0.02155988,0.019326454
0.033717316,-0.0058403593,0.0077025318,-0.024739455,-0.06726546
0.011697623,0.0645367,-0.033591624,-0.081994094,-0.14824769
-0.083018415,-0.08896662,-0.042408574,0.15864992,-0.092622116
-0.13733092,-0.12510638,-0.0782001,0.15437251,-0.14679909
0.0036977816,0.019608274,0.0043665436,0.020334307,0.017008658
0.03615858,0.020862715,0.0010525712,-0.038068444,0.01316885
-0.05686795,-0.03137488,-0.046230394,0.030760301,0.016777769
0.087932974,0.026007392,-0.12624474,0.026617132,0.007922772
-0.014607173,0.0004655544,-0.016739465,-0.016856946,-0.043856155
-0.008654568,-0.053101238,0.05249212,-0.011033208,0.097652785
-0.00921238,0.019399082,-0.012966549,0.031034764,0.004676331
-0.04967994,0.09206868,0.021506691,-0.068325005,-0.03865951
0.0512531,-0.080189936,-0.10991768,0.047767207,-0.071073696
0.010697503,-0.017464064,0.036503647,-0.053017214,-0.0011945273
-0.024489043,-0.004123052,0.016589941,-0.00018868562,0.016278252
0.006291996,0.006271004,0.0054475977,-0.034080986,-0.014830024
-0.0029665874,0.08386138,0.07830012,-0.066007435,-0.054653715
0.032596555,0.05760721,-0.0021453812,-0.016586302,-0.027499981
0.012869391,0.01243814,-0.016503625,0.01919131,-0.06699834
0.007955013,-0.03360736,0.03309532,0.02156771,-0.009995423
0.0044620372,-0.043154508,0.039549354,0.023171237,0.0040599164
0.043788005,-0.06592767,-0.14425953,-0.044155464,-0.002306448
-0.02343895,0.05506946,0.008112153,0.073625155,-0.05350557
0.058557138,0.059615266,-0.09983325,-0.13471471,-0.060266547
-0.0734114,-0.043738548,0.051162843,-0.014598913,0.029388122
-0.0367547,-0.03363385,-0.062040478,-0.09802653,0.071889855
0.07737857,-0.011238637,-0.10133849,-0.11753121,-0.081037074
0.090543486,0.052510884,-0.060418513,-0.16146185,-0.09774249
0.03909912,-0.015511931,-0.02111936,0.018517131,0.023463756
0.00021749144,0.026068378,-0.017884763,-0.012255762,0.053905196
-0.013345183,0.026226524,-0.009924255,-0.04941083,-0.012588074
0.008686908,-0.0221856,0.014410271,-0.015671065,0.024777086
-0.008644187,0.016671937,0.024857981,-0.042716034,0.018281039
0.029149724,0.02477597,0.0062719774,-0.050187264,-0.028182656
-0.031891234,0.014995021,0.018365001,0.010918743,0.008035647
0.086124346,-0.099757716,-0.03254462,-0.13551427,0.047773376
-0.012827576,0.0826066,-0.10525468,-0.08106092,-0.042571478
-0.016877783,-0.03205522,0.0040691546,-0.0016866609,-0.006947998
-0.039737996,-0.005605963,0.016649049,-0.026049538,-6.692627e-05
0.02772548,-0.0081697935,-0.031957027,0.07692779,0.0046737418
-0.0458608,0.0165421,0.033990048,-0.049137786,0.097380474
-0.050996527,0.006355558,0.049430806,-0.117238216,-0.041314404
0.032143716,-0.024434974,-0.018302202,0.0044010417,-0.03824179
0.012716828,-0.01285775,-0.056179903,0.041222945,-0.09370323
0.03152466,0.039884776,0.061111234,-0.07068651,-0.08522198
0.008494851,-0.018471956,0.048584726,-0.063806765,-0.03904395
0.0074810055,-0.037641298,-0.07127947,-0.004505428,-0.022819199
-0.008191032,0.006523265,-0.006853143,0.02072449,0.014691659
-0.012726434,0.01214899,-0.0071824114,-0.00020202859,-0.049906913
-0.0269512,0.012839334,0.0276161,0.0456197,0.015828
0.058644295,-0.055756778,0.047012698,-0.039306033,-0.042096216
0.005174263,-0.04091122,0.0099183675,0.02487118,0.046096962
-0.031242656,-0.031025527,0.0059121684,0.0032535186,-0.008797737
-0.072259896,0.036808234,-0.029375786,0.020701444,-0.016271822
-0.0877769,-0.04560892,0.05899111,0.0297457,-0.053162068
0.08386883,-0.04722258,0.062749125,0.026144069,-0.0030304668
0.011502525,0.05680497,-0.045634713,-0.022265578,-0.022101272
-0.006632652,0.0054967985,0.0010717545,0.015921144,-0.014298055
-0.055507712,-0.051270325,0.016533585,0.038149472,0.01840554
-0.0037437656,-0.01502677,0.04221133,0.0052850908,-0.0195877
0.005535577,-0.010217577,-0.049313847,-0.023962783,-0.009571762
0.0327491,-0.04100627,-0.0048581427,-0.025390219,0.035223138
0.014493065,0.11077469,-0.10853205,-0.10395167,0.0036918072
-0.017403794,-0.0137013355,-0.05900855,0.082378194,-0.018113494
0.044972338,-0.08674709,-0.101826265,-0.04494031,-0.09310781
-0.0050363285,0.050509468,0.0074885846,0.0058076656,-0.018006478
-0.06217133,0.059144933,0.06809287,-0.10008396,-0.0911784
-0.04607122,0.048410073,0.006487933,-0.02025314,-0.019859493
0.039676968,-0.029564416,-0.061767463,-0.027027661,0.021053294
0.039570775,-0.023194252,0.010364971,0.047335602,0.029592324
0.012138944,-0.0074547366,0.0066683535,0.0032482625,-0.03863332
0.0069965026,0.013621146,-0.008866426,0.0040584803,-0.031044273
-0.007108475,0.026304146,-0.00632797,-0.021201985,0.0103305215
0.017398475,-0.0041067754,-0.028321424,-0.026362421,0.027119802
0.033061597,-0.016829683,-0.029353209,0.00992317,-0.0021615936
0.026306469,-0.00906993,0.007966204,0.028888669,0.044293232
-0.009731047,0.0059450497,0.012429323,-0.019728571,0.0002357776
0.0025191994,0.030903395,-0.03598859,-0.011695639,-0.019117577
0.030021612,0.0110607855,-0.030506797,0.012694448,0.020891087
-0.012226072,0.026192823,0.02024599,0.01287168,0.023421453
0.0018103068,0.008343322,-0.0374387,-0.020328185,-0.04491062
0.012988574,0.025744675,-0.06363198,-0.063537486,0.0013599518
-0.123596475,0.072156854,0.018304281,0.014625825,-0.091368996
0.02422806,0.010553229,0.0069982163,0.0010727891,0.023763355
-0.06340238,0.021476164,-0.021358613,-0.0140063735,0.044244714
0.007784894,0.040759955,-0.051168174,0.032821413,0.00022462843
0.028592765,0.014148552,-0.018039256,-0.0029486495,-0.017304534
0.03795071,-0.024486564,-0.0047640707,-0.031442117,0.015264929
0.08118604,0.039063673,-0.13148917,-0.0961553,-0.028588448
0.012490444,-0.009520485,-0.020898482,0.021327553,-0.025467878
0.016020238,-0.037873805,-0.024122281,0.0028953194,0.023340622
-0.0032184653,-0.016507234,-0.039462972,0.0048815827,0.042559825
0.0013970854,0.0029106222,0.011956032,0.03156006,0.016171413
-0.0002924518,-0.011601135,-0.013399374,0.015875947,0.005868673
-0.0035395983,-0.016680853,0.044850446,0.040446185,-0.0019048288
-0.012619576,-0.007456056,-0.0067843385,-0.035862315,-0.028759358
0.09181139,-0.08598798,-0.07270085,-0.009034354,-0.11969222
0.007779681,0.018096495,0.01976649,0.03379904,0.002793132
-0.038686704,-0.013548229,0.026512355,-0.091975495,-0.037719313
0.013001296,-0.012042301,0.037673857,0.008579748,0.038092993
-0.026875734,0.09556888,0.02053016,-0.0902615,-0.108413786
-0.014978649,0.010031881,-0.03053896,-0.009398874,0.027055731
-0.010438319,-0.038233716,0.017600162,0.024171239,-0.0321014
0.035511658,-0.021230241,0.024312122,-0.013016389,0.021021659
0.019389858,0.011314315,-0.00014835948,-0.012236198,-0.028676854
-0.12764943,0.08961115,-0.086808965,0.13455543,-0.08648505
0.011957658,-0.007794505,-0.0089258915,0.026317682,-0.0019939947
0.14737743,-0.037351497,-0.121064216,-0.13683616,-0.11927985
-0.01229003,-0.019087777,0.09279194,-0.03174704,-0.020527147
-0.06998517,0.07146126,-0.052514017,-0.12226202,0.01193353
-0.034167644,0.018422714,-0.043816365,0.081042565,0.013065027
-0.04045291,0.07189816,-0.089966945,-0.064064085,-0.13553537
0.0041067186,-0.001670068,-0.01630061,-0.00994533,0.028770862
0.0022139784,0.030921092,-0.018192166,-0.017808106,0.028865233
-0.012108982,0.0025275084,-0.024670273,0.035913426,-0.028288668
-0.02733405,-0.013287633,-0.0019941882,-0.008630934,-0.020348508
-0.0199371,0.013603038,0.024042089,-0.014442139,0.0036866593
0.12901068,0.02663998,-0.1400961,-0.11448069,-0.14092325
0.02042447,-0.020894904,-0.009085963,-0.03941276,0.08877015
-0.01505244,0.012139521,0.04349706,0.021609813,-0.04394095
0.0355113,-0.04750086,0.025624251,-0.12168727,-0.032923386
-0.04486957,0.017822184,0.036898647,-0.057955742,0.009695291
0.021887269,-0.0015049534,-0.12872148,0.044539105,-0.12167575
-0.008433332,-0.039480913,0.0046416805,-0.031916074,-0.019285707
0.09979896,-0.05896687,-0.096930936,-0.02634947,-0.08980256
0.036701117,0.008273337,0.009243039,-0.035381533,-0.030942265
-0.021442328,-0.00067829795,-0.013072507,0.0004486335,-0.0072980225
0.009056699,-0.022195159,0.036254648,0.0025492061,0.0051542697
-0.052268367,-0.0061424254,0.045226675,0.0035655757,-0.026691647
-0.0008751766,-0.01615007,0.012737913,-0.03380369,0.008405929
0.014855737,-0.041520435,-0.019532457,0.0031020925,-0.008244949
-0.13698643,0.09254884,-0.13647725,-0.03204738,0.07287437
-0.011118874,-0.03403454,-0.036183268,0.029110799,0.0010435482
0.023129558,0.04164852,0.0043664863,-0.025788786,0.0022852425
0.017583596,0.005801046,-0.0053133466,-0.026829131,0.015887959
-0.10617168,-0.053875837,-0.046961747,0.12949656,0.024840174
-0.07979137,-0.03620582,0.061570417,-0.09180802,-0.15122472
0.02160728,0.020890588,-0.0073297904,0.012282656,0.0024166927
0.02467417,0.0050319466,0.05465731,-0.14208579,0.01443658
-0.05784873,-0.009532716,-0.024376243,0.025995823,0.013371849
-0.07182797,0.031460784,-0.07004488,-0.06572917,-0.01245327
0.06917465,-0.0031456195,0.025659584,-0.080988094,-0.07163461
0.0024410395,0.0020557956,-0.017765181,-0.004099675,0.013451539
-0.09435847,-0.10739704,0.08210617,0.013773125,0.09452541
0.048277777,-0.098954245,-0.10031655,0.13089629,-0.036593694
-0.011417085,0.00237252,-0.011980145,-0.008149838,-0.037353154
-0.0630375,0.032768108,-0.050388735,-0.026254524,-0.08538786
0.0010099319,0.01177546,-0.03662499,0.009184085,-0.0055428725
-0.04972003,0.0072269817,0.00014097104,-0.02512117,0.043798357
-0.014784951,-0.00668648,-0.017850386,-0.019351898,0.017474059
-0.12739238,-0.15984981,-0.053136677,0.17558447,-0.13179074
-0.012344284,0.011693435,-0.04474901,-0.0006560618,-0.04497505
0.029795077,-0.010347891,-0.017906329,0.017924292,0.0049576308
-0.02236056,-0.04156646,0.050810203,-0.03421562,0.04005049
-0.020856319,-0.0015208654,-0.019739017,-0.019700779,-0.04144207
0.06911269,-0.02504892,-0.055655368,-0.014115602,-0.048801403
0.04573572,0.0502012,-0.08879241,0.0022401104,0.0077428157
-0.08433228,-0.1634337,0.09659479,-0.004499916,0.07952729
-0.0022944147,0.0457113,-0.0074619474,-0.028040681,0.004861986
0.014532482,-0.015343734,0.00017985525,0.040822476,0.03206917
-0.054612987,0.09209059,0.0131244445,-0.09734208,-0.102577806
-0.03343431,0.05959957,-0.053092334,0.04409041,-0.07376036
-0.025262246,-0.0011679092,0.009806965,-0.013960653,-0.015600228
-0.05580375,-0.012556436,-0.023503039,-0.01634248,-0.008509668
0.016766787,0.024254356,-0.033928223,-0.0045259185,-0.0210378
-0.025172627,-0.010639493,-0.022366643,-0.019930495,0.007630751
0.05865562,-0.016242582,0.046725955,-0.03843157,0.033224557
-0.0127876485,-0.038325276,0.014458312,0.0047045876,0.027732203
-0.029598758,0.017550029,-0.009568561,-0.009800265,0.027980758
-0.023003614,0.0030663388,-0.14853916,-0.053337406,0.0040527773
-0.100458235,0.026141662,-0.030855257,-0.013112124,-0.00097495597
-0.027816722,-0.008546256,-0.042301074,0.024923341,0.07161604
-0.026838496,0.017114293,-0.0077875517,0.007844043,0.014803479
-0.027337447,-0.010295298,0.024689842,-0.021330295,-0.0022585855
0.126997,-0.09815645,-0.054820612,-0.044670064,-0.06740186
0.14762704,0.075181276,-0.12339619,-0.2065522,-0.029239027
-0.04748954,0.023457156,0.05610377,-0.07262142,-0.06882202
0.07029791,0.004324355,-0.011696902,8.023466e-05,-0.009349714
0.0888211,-0.116014004,0.036517985,-0.08082754,-0.10916724
-0.090631984,0.028377553,0.0989504,-0.06849264,0.025184067
-0.024746377,-0.050227575,0.01969263,0.016506366,-0.018999634
-0.1445385,-0.06632301,0.12167085,0.094873145,0.01713506
0.081670366,-0.046942472,-0.1877186,0.08915625,-0.085673116
-0.14258118,0.08436907,-0.122924134,0.15207359,-0.14109081
-0.012384506,0.0026323248,-0.007301701,-0.026200015,-0.016907815
-0.007980134,0.0035800065,0.00025567363,0.027180828,0.0040447493
-0.08041848,0.07384005,0.0382763,-0.046085734,-0.061646372
0.0061309612,-0.024881084,-0.032524608,-0.00019917985,-0.0158682
0.026096998,0.016332125,-0.048152305,0.0050673,0.00873449
-0.02449989,0.015775349,-0.029976567,-0.021387829,0.008264177
0.020946356,-0.010614013,0.04697068,-0.13052534,0.004805605
-0.14536569,-0.10646046,0.077334926,-0.09906908,-0.0660636
0.00041617098,-0.042863443,0.036059283,0.02179143,-0.018042507
0.01581165,0.010058937,-0.04155882,-0.0137925735,-0.01873893
-0.093018524,0.052174818,0.0115966,0.14255652,-0.07140247
0.08682452,-0.10195212,-0.03087135,-0.024215003,-0.060515106
-0.006178213,-0.002866269,0.029094147,-0.022420086,0.02174073
0.0476675,-0.010424098,-0.020695226,-0.049225904,-0.017529065
0.005471742,-0.011170372,-0.02560172,-0.020740792,0.023101002
-0.008972754,-0.03227879,0.021718705,0.04382457,-0.009320125
0.013567436,0.013176031,0.01441196,-0.012432561,0.0028082656
0.038574707,-0.024202857,0.042248975,-0.06855057,0.03598919
0.021267,-0.07057983,0.026516242,0.014599857,-0.046250343
-0.034107942,-0.026113082,0.00044297983,0.044455964,-0.030916587
-0.11074215,-0.035998818,-0.0020675538,0.00080932956,0.08099794
-0.021401616,0.002981611,0.04584223,-0.011725024,-0.014423726
0.030935919,0.014116339,0.022485556,-0.029733546,0.02568694
0.024808165,0.009553753,-0.037473407,-0.020532668,0.049995486
0.0038528857,0.011335478,0.049488313,0.011086064,-0.027268648
-0.04660337,-0.03731772,-0.02199427,-0.00555564,-0.033172775
0.025418904,-0.0044201612,0.022190804,-0.013307319,0.011763183
0.004101275,-0.009161323,0.012583212,0.033917,-0.0007229665
0.008795436,0.0018798311,0.011857449,0.013686248,0.032209415
-0.07563913,-0.11636669,0.08796529,-0.04926091,-0.047886107
0.09058564,0.039643817,-0.16399178,0.0036796439,-0.19567254
0.03805117,-0.020544244,-0.02187853,0.00024626922,7.90371e-05
-0.0061956253,0.040217087,-0.022756217,0.01941646,0.030445822
0.035467885,0.01901455,-0.0060181664,0.037227523,-0.0089632105
0.010360455,-0.029636446,-0.015117321,0.030679466,0.012120275
0.004374106,0.03265353,-0.023023259,0.017016862,-0.018778892
0.02019578,0.07724169,-0.15246621,0.029965892,-0.17028108
-0.016159832,0.17610732,-0.15185161,-0.047178388,-0.17040348
0.019314328,-0.075747535,0.060606472,-0.02473456,0.0014244586
-0.02299101,0.0078346385,0.015252672,0.02819307,0.010675318
0.014750484,0.039529357,-0.026254775,0.0047412775,-0.03293588
0.038434826,0.007598724,0.008121591,0.0125448685,0.015404679
0.034528635,0.04453857,0.028758496,-0.007824145,-0.006648647
0.030652404,-0.051757034,0.017316518,0.019818528,0.01667863
-0.041572753,-0.007166397,0.044156045,-0.021649158,-0.023502337
-0.0010246504,0.003386211,-0.004617401,-0.01110682,-0.00965841
0.00032018882,-0.022910064,0.029442,-0.12465069,0.067756146
-0.04239642,-0.050371695,-0.0008041397,0.06340184,-0.019552752
0.08631988,0.006113782,-0.07305626,-0.077098295,-0.022303283
0.07551466,-0.016102524,-0.020057764,-0.13490053,-0.10396032
0.031148184,-0.041497555,0.042852793,-0.010497649,0.010653066
-0.017501734,-0.015991092,0.037103016,-0.050387036,0.0084113795
-0.10414453,0.06645643,0.017265653,0.07520826,-0.068972826
-0.038213868,0.041814964,0.063203715,-0.08958857,-0.030629043
-0.030080568,0.02082008,0.0031252562,-0.032604378,-0.0387074
-0.009134906,-0.0068232776,-0.018637735,-0.009010272,0.012370373
-0.0005574522,0.018483927,-0.024932053,-0.016593961,-0.039999664
-0.084213056,0.036749035,-0.06438158,0.0011948575,0.028008113
-0.0009300693,0.024562027,0.008294465,0.020803997,-0.025447182
0.022968456,0.11103288,-0.0050538573,-0.019329553,-0.049140647
0.06315153,0.021748766,0.0048561385,-0.03175199,0.005085323
0.0009280529,0.059590634,-0.08052509,0.12920138,-0.07844928
0.08251985,0.006207099,-0.14106563,-0.05747296,-0.10147092
0.008079162,-0.018409593,0.041472297,-0.024604948,0.008762704
0.026823182,0.063566774,-0.00062303414,-0.07548025,-0.08081599
-0.016315335,0.0033669486,0.014905581,0.027742589,-0.010381077
-0.012566531,0.031801783,-0.009859919,-0.08856428,0.112552896
0.01994532,-0.15649755,0.017822167,-0.06077968,0.0960296
-0.042772535,-0.018642412,0.022063218,0.011517081,0.004745718
0.026104653,0.03782507,0.013177949,0.06257065,-0.042655203
0.04514912,-0.004163851,0.00368943,-0.031272996,0.0582892
-0.003800094,-0.0067271134,-0.013950947,0.008818739,-0.019836674
-0.009164389,0.0065485123,-0.019731998,0.0066755046,0.0017702236
0.0026577294,0.03199027,-0.095704496,0.040863954,0.045252103
-0.019855328,-0.03499273,0.0070020044,0.008423001,0.020236975
-0.0030071263,-0.009961345,0.030480627,0.013530915,-0.0011060693
0.018024635,0.010669408,-0.019419627,0.031799212,0.020520194
-0.006333517,-0.05136386,0.061411805,-0.017288813,-0.08120438
-0.039479267,0.047057815,-0.053740427,-0.091342166,0.12231943
0.07944544,-0.003741742,-0.08449665,-0.09155621,-0.0121938735
0.036535464,0.080928564,-0.10711751,-0.13557114,-0.1526958
-0.025670119,-0.015287962,0.026262136,0.09497075,-0.0019374123
-0.016085416,-0.0027357454,0.031051002,0.048657667,-0.010083337
-0.022757502,-0.0034980804,-0.01994885,-0.0033584894,-0.027649961
-0.010089897,-0.005884516,-0.016795574,0.008008824,0.05240233
-0.03325906,-0.035651624,-0.01926063,0.039276913,-0.039835658
-0.088550486,-0.0019062678,-0.043096237,0.08194139,0.027385289
0.025183668,-0.11778762,0.013571632,0.026797451,0.043278594
-0.076825425,0.099758886,-0.09593962,-0.12402144,-0.0827078
-0.06428968,0.07221059,0.04451501,-0.030241136,-0.020018276
-0.04878384,0.042747404,-0.10718417,0.022470655,0.018181171
0.08320175,-0.03326399,-0.117488526,0.079400346,-0.03218341
-0.09788789,0.14827095,-0.12187908,-0.12922673,-0.064205535
-0.043574534,-0.025491634,0.057859357,-0.018879255,-0.05686195
-0.045409866,-0.010699427,0.09048687,-0.0643923,0.00013378868
0.012044984,0.016486062,0.0627711,-0.01706256,-0.03327379
-0.02761951,0.029386532,0.045291297,-0.007443371,0.026671505
-0.111557394,0.007630878,-0.16787551,0.17680503,-0.119304314
-0.0028429104,0.00517826,0.046221614,0.00059200986,0.0036131842
-0.038574893,0.051253103,0.012521354,-0.094398975,-0.031285297
0.024358734,0.0024461078,-0.030073365,-0.040125728,0.01045723
0.02861939,-0.006811316,0.005360496,-0.028648928,-0.017261012
-0.04563511,0.022052335,-0.032479297,0.023206357,0.0008027891
-0.08350201,0.083782315,0.09751683,-0.004478382,-0.03786932
-0.014725244,0.025243253,-0.06904632,0.026972456,-0.07836542
0.008829101,0.0032154864,0.026466304,0.021533074,0.014652311
0.0032276518,-0.037245464,0.0033249685,-0.027913928,0.052970015
-0.082200244,-0.049575076,0.08913973,0.05903262,-0.051769637
0.08546934,-0.1351343,-0.030615142,0.0014232516,0.0020961151
0.006271316,-0.06829902,-0.023676833,0.02935909,-0.03860015
-0.079254895,0.12105141,-0.09243627,-0.03517383,0.023372248
-0.042428818,0.07665167,-0.09098826,-0.011679788,-0.0037158271
0.02109494,0.086054474,-0.08380846,0.08833436,-0.14192551
0.008795342,-0.02152994,-0.0015766717,-0.016487785,-0.025706451
0.015460721,-0.0027426449,0.0066820187,-0.016593302,-0.008243287
-0.016293462,-0.052686132,0.072284386,-0.044973318,-0.051408097
-0.101802096,-0.012476609,0.12490846,-0.100767955,-0.14716764
-0.007754832,-0.018519111,0.086437546,-0.0018767016,-0.024785692
0.066049,0.021959137,-0.05867796,-0.011935578,-0.022974143
-0.020356087,-0.019654306,0.016442826,-0.006236375,-0.007985106
0.0033678974,0.018770315,0.033779256,0.003297023,-0.006656647
0.104527555,-0.086197585,0.021927383,-0.03904954,0.015069941
-0.018187234,-0.0022659039,-0.006092632,0.038143165,-0.014367892
0.04368565,0.020671312,-0.0025827826,0.0007578085,-0.012716146
-0.033929046,0.010002106,0.009447032,-0.018450715,0.005148238
-0.021917332,0.016291711,0.024022818,0.03258227,-0.008728821
0.004682299,-0.017713023,-0.08347133,-0.024683561,-0.013485683
-0.056834232,-0.06202173,0.06152601,0.0017873562,0.020668177
-0.026532145,0.049374796,-0.039898243,-0.00399819,-0.020343678
-0.0024769744,0.044839233,-0.013403156,-0.010114886,-0.026358524
-0.016405402,0.027548935,0.022922805,0.014426379,0.017652197
-0.016717987,0.00583346,-0.044031613,-0.026703155,0.0049927263
0.05035996,-0.15678497,-0.01099023,-0.07867436,0.052977555
0.03251197,0.0089116525,-0.01435027,-0.031096272,0.01550023
0.15641713,-0.16588368,0.00780282,-0.054534357,-0.06973773
0.028071646,0.019028893,-0.004650156,-0.028075162,0.02648779
0.098677404,-0.068702355,-0.01730452,-0.068584986,-0.020613488
-0.03761316,0.019445397,0.00645958,-0.044947486,0.01328283
0.07971857,0.014704174,0.024667751,-0.044446602,-0.07107977
-0.022435458,-0.123976104,-0.0048101256,-0.06657415,0.063689716
-0.087249726,0.03643781,-0.055314794,0.031030564,0.0048980396
-0.033224,0.031747393,0.015257192,4.229552e-05,0.025694393
-0.07970223,-0.06358053,0.049814884,-0.018166164,-0.039664414
0.041486185,-0.03530745,-0.15314858,0.1973928,-0.16854407
-0.025597937,0.016343059,0.031285416,-0.0054356637,0.0056169126
-0.06959668,0.017548444,-0.011712364,-0.007574336,-0.014031526
0.053485684,0.04740956,0.0014046143,-0.09128914,-0.10738104
0.050399225,-0.10323812,0.068597235,-0.10120404,-0.14687529
0.0013794157,-0.043475088,0.025539665,0.10747665,-0.045231774
-0.015880078,-0.014961263,0.009270403,0.036041662,-0.040917262
-0.0064246953,0.03317902,0.017043915,0.0052770767,-0.017945586
-0.0017782395,-0.020796036,-0.031958073,-0.030428825,-0.00276298
-0.02336868,-0.0075168316,-0.01250017,0.06820865,-0.026059827
-0.08898216,0.14751877,-0.052433092,-0.15991609,-0.050598323
-0.0019159587,-0.014313868,0.012649932,0.007136615,-0.007264787
0.020855606,0.018510377,0.021956425,0.03963123,-0.0079877125
0.03978791,0.00814533,-0.024015993,-0.0071834,-0.003149743
0.089015394,-0.03459929,0.009032163,-0.08407991,0.022797342
0.055912565,0.0130261425,-0.03385072,-0.056460366,0.023046294
-0.027865244,0.004051798,0.018213391,-0.021603068,-0.045421775
0.04641348,0.027174056,0.0013059432,0.024707265,-0.015309862
-0.025785036,-0.023299722,-0.027563531,0.027434627,0.0042104134
0.0037168583,-0.01858025,0.0013771935,-0.025214022,-0.023227068
-0.06186383,-0.031271275,0.11693054,0.0070104026,0.002118523
0.17671669,-0.1887075,-0.043550972,0.00998953,-0.02545636
-0.023096817,0.028537087,-0.008145953,0.0022063649,-0.032855876
0.003180336,0.068354584,-0.037955355,0.028420046,-0.02196517
-0.08522492,-0.12626961,0.11960273,0.02985955,-0.13966279
0.022083303,0.040142186,0.037057504,0.014816696,-0.016784707
0.047544505,-0.012408389,0.024773587,-0.033852268,-0.039453078
-0.0037775906,0.025891447,0.006837684,-0.0024677808,0.024533095
0.012629231,-0.029924078,0.02271385,-0.019595511,0.048302922
0.010516571,-0.017012224,0.034052633,-0.011078845,-0.06635334
0.022737985,-0.017497653,-0.023818683,-0.017210124,-0.0032294057
-0.02023614,0.027820252,0.023732234,0.016860431,0.044169616
0.17189665,-0.12882091,-0.10657655,-0.056076687,-0.12375106
0.0043881256,-0.03804682,-0.007868571,-0.022119068,-0.03389201
-0.012696239,-0.051969767,-0.029206036,0.014964065,-0.0068599037
0.052623678,0.040987164,0.034282673,-0.0057308115,-0.020264171
-0.043375265,-0.036233738,0.010115285,-0.07201139,-0.07731322
-0.107905105,0.15210079,-0.08938072,-0.12891082,-0.14281832
0.012712252,0.06769177,-0.11223763,-0.16081834,-0.045996737
0.023193223,-0.011902406,-0.13762005,-0.019648967,0.09648265
-0.023929056,-0.03141788,-0.0058065504,0.00028044876,0.027761342
0.020819802,-0.0020402025,-0.049715675,-0.11322373,0.13930081
-0.031080743,0.09255758,-0.012083589,-0.022427889,-0.052281696
-0.001995748,0.0005703898,-0.007901546,0.0125369765,-0.047986403
-0.07797588,-0.08681118,0.10718089,0.011079792,-0.07359258
0.030320816,0.010833692,-0.061830983,-0.01080049,-0.03823278
0.018183855,0.042253427,-0.008813766,-0.0012551069,-0.03692825
-0.012150206,0.0053250506,-0.01765588,0.027306,-0.0071707056
0.010249968,-0.023265459,0.04032818,-0.020852096,-0.003799787
-0.021678606,0.047456294,-0.045416772,-0.13871816,0.08204435
0.050145283,-0.08406395,-0.014967889,0.02810683,-0.020091726
0.0147410035,0.07154402,-0.12096743,-0.0427002,-0.018419242
0.0063074618,-0.011150452,0.03462617,0.03160048,-0.021309694
0.02485155,0.026595421,0.0018348789,-0.011064411,-0.020540612
-0.026887935,-0.003767509,-0.006992716,-0.02771925,0.024767216
-0.13303304,0.1278928,-0.1308058,-0.12248555,0.08588279
-0.04081594,-0.12400744,0.08380628,-0.049895782,-0.013584759
0.16136912,-0.06432704,-0.16776231,0.026515301,-0.1422256
-0.048682544,0.0061634355,0.013342563,-0.021624148,-4.8900623e-05
-0.0022319607,-0.04308789,0.045897476,-0.022070734,0.039163914
-0.0056211073,-0.006938418,0.03253378,0.02238884,0.030716566
-0.021585405,-0.01953215,-0.0024479574,-0.00987914,-0.025409734
-0.03965524,0.023284502,0.011912373,-0.0062636323,-0.0018607879
0.041729443,0.009514091,-0.03703139,0.10382437,-0.009823661
-0.009145178,-0.018064348,0.0014653072,0.013394009,0.055693258
-0.01867825,-0.010181774,-0.10348452,0.015893836,0.031083602
0.035157997,-0.035189874,0.004617594,-0.0039082165,0.016254414
0.011269282,0.027177947,-0.022136316,0.0029707027,0.032844696
0.0035101946,0.027663922,0.0020629875,0.011721339,-0.022140495
-0.03300961,-0.087533794,0.084526174,-0.09304225,-0.012793251
-0.04985533,0.12706092,0.019266563,-0.045892216,-0.12446511
0.031067068,0.0194274,0.004113997,-0.02540783,-0.0028285559
0.022223178,0.029477894,-0.012849456,-0.020151373,0.016600367
-0.08698413,-0.07668762,-0.12810272,0.1371939,-0.16059804
0.042234782,0.0020410868,-0.050732482,0.03652896,-0.020246984
-0.06833833,-0.091067486,-0.07834165,0.019016035,0.081920475
0.025232429,-0.02731893,-0.0011322134,0.019749824,-0.0059832484
0.047601074,0.024837257,-0.016435385,0.010098984,-0.049920585
-0.027973525,-0.013092994,0.061577838,0.019900799,-0.00031041203
-0.11840284,0.12901245,-0.1308797,0.012095506,0.01422939
0.008579068,-0.017810704,0.0045343335,-0.03472109,-0.013834375
0.049027614,0.021968652,-0.061548512,0.03089364,0.045194384
0.011445212,-0.015302027,0.017724415,-0.012607923,0.019622438
-0.057000257,-0.0007167262,0.0027702895,0.08022894,0.039379507
0.015644137,-0.00024707548,0.030163249,0.006038935,-0.005843894
-0.10136028,0.09302006,-0.04638749,0.08081496,-0.052782163
0.027559401,0.019433571,0.01473594,0.013377738,-0.0068917265
-0.029831244,0.045073323,-0.01730592,0.0033847643,-0.027735544
-0.013972819,-0.008087823,0.016721388,0.024920294,0.008372224
-0.021495879,0.032893978,-0.029872859,0.002154942,0.018316776
-0.021450909,0.027065078,0.041069377,0.06002723,-0.036246732
-0.04155005,0.030129015,-0.00083140365,0.011715397,0.0032634207
-0.06932539,0.02740773,0.038377695,-0.0059119044,-0.030668236
-0.10636364,0.013924814,-0.03210602,0.07169625,-0.099299856
-0.04724439,0.086885735,0.00033728615,-0.009190555,-0.15514559
0.03283232,-0.0010778721,0.0017495456,0.034869473,-0.016128475
-0.024549402,0.010183762,-0.017285036,0.01459119,-0.017596012
0.021169692,-0.014130063,-0.039939664,0.042794432,-0.018347532
-0.07754663,0.17409296,-0.026413755,-0.06093201,-0.10743577
0.02691578,-0.0050382568,0.010524936,-0.022980971,-0.016023844
0.06614823,-0.016203336,-0.06315479,0.009512489,-0.05353157
0.07857176,-0.010170754,-0.098418094,-0.102434315,0.11365949
-0.009322808,0.04015599,0.0015712534,-0.027279118,0.012360704
0.01952087,0.019705608,-0.0043048253,0.0055002053,0.04907353
0.026320446,-0.01901178,-0.039495558,0.025930421,-0.00794145
-0.012731528,0.007770689,0.039970797,0.03780082,0.004601762
0.03484174,-0.0037461752,0.013183397,0.015310299,-0.04436297
-0.014743229,-0.02612894,-0.01350527,0.006753035,-0.057095263
0.008652917,-0.026610622,-0.022417758,0.012330928,0.032297723
0.022114992,-0.0012237645,0.010964717,0.021187492,-0.034001485
0.081840195,-0.11837846,0.04110389,0.041101757,-0.10520491
-0.011298658,-0.011559083,0.033500094,-0.020433554,-0.0025035476
0.019842945,0.029212229,0.008424469,-0.055717096,0.010701529
-0.024790006,-0.07587972,-0.091038935,0.027149105,0.040399626
0.015124338,-0.008085789,0.0019547022,0.0015784674,0.0061101634
-0.025771702,-0.018885145,0.02406893,-0.008897701,-0.0066665933
-0.037390094,0.038147625,-0.06464173,0.07282147,0.0036645294
-0.009014975,-0.010167858,0.027988914,-0.010406716,-0.0034338522
-0.08793347,0.07576499,-0.04624304,-0.08390166,-0.054495677
0.06711007,-0.033021875,-0.013590418,-0.007842609,-0.030395819
-0.0352213,-0.003734254,0.012425778,-0.025338758,0.048211522
0.0015920198,0.036239587,0.009594442,-0.019036232,-0.008929914
-0.107970975,0.1130997,2.1355198e-05,-0.10312265,-0.10401403
-0.04518447,-0.012357064,0.020792527,-0.06546371,0.029771317
0.02309224,0.008989723,-0.021081744,-0.02016553,-0.041870628
0.013535013,0.018719371,0.04933821,0.042095974,-0.023795621
-0.023712277,0.07590214,-0.20285136,0.18867071,-0.17958623
0.011809589,0.08012544,-0.029036876,-0.051368114,-0.0095871
-0.10247521,0.11222007,-0.14296581,-0.048675936,-0.061942525
-0.060975187,-0.012825672,-0.0019178572,0.04074422,0.0576705
-0.004986786,0.01484717,0.017885273,-0.04745158,-0.017209591
0.005687895,-0.040726166,0.00917061,-0.0314964,0.049442776
-0.061933562,0.008095198,0.03513574,-0.04823412,-0.04294155
-0.011129841,-0.013519382,0.009560986,0.0120242955,-0.008969333
-0.008068197,0.000587559,0.03506074,-0.041929383,-0.00819487
-0.026380857,-0.034123857,0.017334526,0.0050075883,-0.02805875
0.013551868,0.02676598,0.0061616367,0.04241431,-0.013519243
-0.040557615,-0.0773671,0.103250764,-0.0878531,-0.08782553
0.12689906,-0.1372003,-0.05080825,-0.08738387,-0.049166877
0.02931455,0.02230786,-0.0052441834,-0.010151021,-0.006889047
-0.020141687,0.033058237,0.033207636,-0.022021126,0.017022254
-0.063998014,0.049686097,-0.03731143,-0.004421417,-0.01940288
-0.015555629,-0.020071885,0.043803014,0.040108398,-0.027270757
-0.003995651,-0.101539165,0.119150355,-0.026832055,-0.016935851
-0.0011416873,-0.0044926545,0.0798796,0.012660055,0.02541939
-0.021629432,0.07806086,-0.013789571,0.004588053,-0.049344297
-0.1085327,-0.07787564,-0.05628289,-0.12232481,0.08505092
-0.025197454,0.0064083776,-0.004717137,-0.036047433,-0.007913571
-0.007869196,0.0060183383,0.05169731,-0.043577205,-0.09568286
-0.13732517,-0.059324283,0.08523649,0.022154514,-0.028463235
-0.11501146,0.09121696,-0.13408658,-0.01005907,-0.06734994
-0.016519431,-0.0034513364,-0.0508348,-0.049299754,0.0031958604
0.022911651,-0.005076975,-0.04330713,-0.011214581,-0.0248531
0.01606089,-0.030944945,0.0137699675,0.021746423,-0.032766685
-0.010194249,0.009082317,0.016122356,-0.01581846,0.0049815443
0.024554178,0.025492767,0.017640922,0.004666452,0.055234432
0.03871069,0.032650534,-0.029003302,0.03393819,0.015698643
-0.041595366,0.0053138826,0.0037061526,-0.03197046,-0.022365011
-0.01243517,0.028310198,0.009384569,-0.0028473078,0.020242939
-0.013870958,-0.004683237,0.033943374,0.009681006,-0.005092477
-0.0070195408,0.0122151775,0.008545222,-0.029355912,-0.041070186
0.0076495083,0.012693876,0.011697873,-0.11599863,-0.076941565
-0.015644014,-0.014418037,-0.00872584,-0.0016971838,-0.03938303
0.04310206,-0.016332192,0.045106646,-0.13390781,-0.048089612
0.009591841,-0.01834736,-0.001587304,0.040909328,0.0050982484
0.018163575,0.033528946,0.029998565,-0.008869791,-0.011488411
0.014103693,-0.0031537814,0.029660052,-0.05784258,-0.015330838
0.055696774,0.037559435,-0.039258704,0.007886873,0.0041427533
-0.027456827,-0.07524702,0.088954,0.021717997,-0.0063227755
-0.042400084,0.060604755,-0.076592624,0.08314908,-0.080221094
-0.040508103,0.05405305,0.005246801,0.04484632,-0.036875747
0.01283585,0.023301171,-0.026993424,-0.08352038,0.058147542
-0.0970413,-0.06459705,-0.09220281,-0.08152404,0.09057403
-0.043901533,0.029843263,0.022103764,0.014197746,-0.02631907
0.04953747,0.04169017,-0.031608377,0.0040670517,-0.07478182
0.012443262,0.0286428,-0.034385927,-0.006345329,0.017202068
0.024603002,-0.03981858,-0.007084251,-0.0025259384,-0.018244822
0.042203866,-0.0077149696,-0.062939525,-0.031173188,0.033051364
0.014312358,0.03704422,-0.0363287,-0.003565471,0.0022158478
0.0057881502,-0.027820304,-0.033007294,0.017711887,-0.02996973
0.06795217,-0.0044939504,-0.0019345197,-0.05056826,-0.01881071
0.075270146,-0.03390386,-0.06996542,-0.061831497,-0.021427631
0.12082685,-0.019233737,-0.064493306,-0.09002838,-0.031718973
0.048213426,0.045697607,-0.02737389,-0.09018549,-0.14577167
-0.012777463,0.014908613,0.010472317,-0.021383027,0.014499632
-0.037578706,-0.023153419,-0.016765451,0.08030259,-0.016342321
0.014861191,-0.016978342,0.108478375,-0.042785663,-0.068829075
0.13551636,-0.08054517,-0.06385309,-0.039253842,-0.026972964
-0.06673868,0.097939946,-0.017773347,0.058352202,-0.037241317
0.010111401,-0.040574864,-0.005493581,0.011994162,0.035811666
0.018186955,-0.031517424,0.06012028,0.017518824,0.035186265
0.06830686,-0.02421555,0.02926047,-0.06720462,-0.03978499
-0.020377345,0.0267513,0.063561685,-0.016251674,-0.03202071
0.002561139,0.033448517,-0.024649357,-0.030562269,-0.05319761
0.03805829,0.034940824,-0.0016470172,-0.022406982,0.00085465884
0.07805489,-0.04026749,-0.0153039945,-0.036307503,-0.008638416
-0.03393041,0.030269919,-0.048754632,-0.0063235546,0.014930402
0.027563201,0.03500116,-0.016117543,-0.0063108653,-0.036979336
-0.0063060103,-0.0012135943,0.018377412,0.020145586,-0.011013836
0.024390401,-0.021693893,-0.0155280335,-0.0036078491,-0.035229336
-0.01180738,-0.020521972,0.012195035,-0.003309554,-0.014817842
-0.042363837,-0.003735219,0.00028677756,-0.008115605,-0.02222076
0.016864775,-0.050139938,0.0115396995,-0.028082341,0.025027176
-0.014923076,0.013083237,-0.009488699,0.006469123,-0.005293067
0.078553975,-0.089356065,0.07129494,-0.10011599,-0.07977143
-0.03646119,-0.05388394,0.056253985,-0.026149841,-0.013408221
0.012554704,-0.017432276,0.009184816,-0.0043489025,0.023574514
0.015989011,0.07614876,-0.1631605,-0.05640292,-0.17851606
-0.058000658,0.034760114,-0.01973108,-0.03410017,0.03191624
0.049958963,0.00034575397,0.020650009,0.016363766,-0.010958263
0.00090451975,0.024245825,-0.00051965646,0.0054663736,-0.0035035282
0.0021687273,0.031091522,0.030173337,0.007820563,0.013367734
0.024877887,-0.025924688,0.041813143,-0.039569058,-0.010422803
-0.039073538,0.13267794,0.0011575408,-0.112128645,-0.12803651
0.0031363706,0.04566899,0.015170499,-0.008393732,-0.025900085
0.049799092,-0.009575816,0.032708127,-0.022735551,-0.036512423
-0.01810062,0.021744052,-0.0015573232,0.015232089,0.008295244
-0.08180877,-0.031755865,-0.049034197,0.08262099,-0.032795355
0.035787817,-0.08561136,0.10265698,0.03707516,-0.045766618
0.1047026,-0.009167281,-0.14077699,0.12691443,-0.0997528
-0.025833994,0.038919393,-0.038880408,-0.002870494,-0.0129635995
0.11978794,-0.01968643,-0.026104823,-0.078734875,0.015194571
-0.0234198,-0.0032084293,0.044106852,0.011220984,-0.033558425
-0.021099085,0.0782326,0.016208308,-0.030996146,-0.038594745
0.030640073,-0.0012430911,-0.03227237,0.032975025,-0.091437615
-0.017871939,0.0074425903,-0.021527916,0.012259769,-0.012546924
-0.010286883,0.043458723,0.03956336,-0.046666026,0.005499213
-0.0054846266,-0.01172835,-0.012717862,0.019002091,-0.0041116355
-0.050127678,0.026676366,-0.000586834,-0.045524795,-0.00250853
0.0021924227,-0.013603315,-0.0040585194,-0.005240338,0.0104206605
0.005465801,0.049031824,-0.06480253,0.026681308,-0.020170562
0.06334066,-0.025994474,-0.0051439255,0.056925282,-0.10304199
0.010722893,0.0039433823,0.02954664,-0.028273856,-0.023567483
0.018133895,0.13590059,-0.1572535,-0.072682194,-0.054069705
-0.03881184,-0.018521706,-0.02191996,0.019244378,0.017040657
-0.013723923,0.005739902,0.026642727,0.03336021,0.028043054
-0.019426206,-0.0054447046,-0.016667334,0.022932151,0.01544888
-0.103723496,0.032597974,-0.08947854,0.08008595,-0.064038366
-0.0037208132,-0.05507261,0.008049659,-0.0020429173,0.054281358
-0.009111813,0.022658886,-0.019049246,-0.013367126,0.0061774976
-0.08911577,0.03457162,0.06631908,-0.09450334,-0.11797432
0.037800927,-0.060029164,-0.047907088,0.012380392,0.04573503
0.045710046,0.0013410884,-0.02038863,7.732755e-05,-0.018811522
-0.0665729,0.07192161,-0.09046809,-0.038508963,-0.058434997
0.08601752,-0.06663793,-0.056309987,-0.005876306,0.022110237
0.0066713523,0.018632773,0.028022412,-0.013370945,-0.02019092
-0.02496903,0.07992173,-0.043276876,0.006799242,-0.010140189
-0.012100226,-0.030850092,0.00403022,0.030827036,0.00097584235
-0.07981863,0.11057089,-0.064455785,-0.09328007,-0.034076493
0.05457645,-0.0100682685,-0.0019556412,-0.033375554,0.011478325
-0.014765762,0.02683719,0.005438312,-0.02407341,0.0017698051
0.0257157,-0.024720678,0.0080035385,-0.006038847,-0.0011815568
0.015545134,-0.042146247,0.015917111,0.0112753725,0.0068910085
0.035169885,0.046700247,0.004946023,-0.048092853,-0.02816418
-0.036740396,-0.026978957,0.016828762,0.034719843,-0.021134747
-0.019964665,-0.07038175,0.010404059,0.053788338,0.0052787643
0.012593379,0.021416657,0.021480346,0.0038801546,-0.00024581567
-0.073800996,0.016703172,0.011312671,0.047984686,-0.045956623
-0.02323583,0.03118338,0.05034563,-0.12737098,-0.05329911
-0.0008238019,-0.047028117,0.033840153,0.0026319085,-0.025608975
-0.0023692034,0.025775269,0.024732694,-0.06140216,-0.006063987
-0.057398092,-0.1268064,0.05315806,0.08599758,0.015078004
-0.03276942,-0.006112921,-0.012789622,0.01323719,-0.037968315
0.0012541143,-0.040917814,-0.032876723,-0.017371757,-0.028657002
0.09822996,0.056433532,-0.13489991,-0.08716981,-0.07615558
0.010301542,-0.022047592,-0.0028240737,-0.018374098,0.06577819
-0.008339565,0.015766269,-0.02937151,-0.013970605,0.010193925
0.032616835,0.07749446,0.04350928,-0.122932665,-0.13387886
-0.016608875,-0.035068188,0.039061457,-0.008157191,-0.019722473
-0.05966205,-0.019402325,0.018171228,0.034255583,0.023661269
-0.019618198,0.044376206,0.09301536,-0.16424021,-0.11633459
0.03199402,0.032935392,-0.025716435,-0.020989817,-0.05020909
0.045443118,-0.015269529,0.017215785,0.020053893,-0.0072821467
0.017001959,0.07546214,-0.0672948,-0.11852559,-0.08552016
0.02146081,-0.14381476,-0.10518,0.060514737,-0.03587529
0.0021579997,-0.044058673,-0.027835531,-0.038160123,0.0030028473
0.16697733,-0.10177449,-0.12818858,-0.06796027,-0.12170882
0.019864753,-0.005353036,-0.021922281,-0.025803294,-0.024299627
-0.0070330794,-0.013889542,0.011908846,0.044239197,0.005740865
0.0067589795,-0.013745885,0.007825878,-0.013692176,0.03600122
0.03621195,0.03332118,-0.014053923,0.009448116,-0.026838906
-0.019426543,-0.02501906,-0.0018868732,0.02931839,-0.026580846
-0.007989999,0.012126012,-0.012499497,0.01680493,0.010518369
0.119423196,-0.13980761,-0.060833164,-0.04830261,0.035841748
0.06244272,-0.081591845,0.003303951,-0.055721328,0.046657894
-0.010987733,0.0038784991,-0.013003165,-0.028115783,0.03239446
-0.02218374,0.028788824,0.019198783,-0.016307518,0.014173458
0.045551058,0.024458665,0.03484088,-0.026562503,-0.034761176
-0.0009564532,-0.03499777,-0.026304448,-0.029919516,0.020234799
-0.03207426,0.006834497,0.003093055,-0.013445805,-0.025231125
-0.0745081,0.048443306,0.07614774,0.05419808,-0.14014015
0.022542054,0.008347196,-0.036984716,0.033036575,0.036564063
0.07757101,0.002171341,-0.029232232,-0.055208016,0.03850019
-0.040438656,0.032955423,-0.007162706,-0.008771214,-0.09479526
-0.038536444,0.10870964,-0.08136812,-0.116874814,0.026764717
0.040184077,0.05235149,0.01659006,-0.085654445,-0.03720423
0.081131846,0.02556198,-0.07721403,-0.08720707,-0.10548981
-0.018881658,-0.021139609,0.02434191,-0.014490758,-0.010380044
0.04096158,3.2259646e-05,-0.005093015,0.032218646,0.011267676
-0.0106685525,0.017988767,-0.0015095808,0.0029966081,-0.0023558259
0.0771802,-0.00037488932,-0.063467756,-0.05537613,-0.025843201
-0.049740274,-0.032511234,-0.0064778654,-0.026039181,0.0090267155
-0.021589695,-0.0046721683,0.03905113,-0.0053869463,-0.044652298
0.005611363,0.00028299753,-0.016611181,-0.008507459,-0.019907279
-0.022753365,0.0020233763,0.009462883,0.0030217255,-0.044967756
0.014459799,-0.078268245,0.028676655,0.024200821,0.06707236
0.024003077,0.077124126,-0.08567145,-0.10650725,-0.0020849425
-0.054813888,0.013890262,0.036033258,-0.032744173,-0.009129881
-0.019383362,0.04845508,-0.023650147,-0.039700907,0.051938836
-0.043004487,0.0890103,-0.18008831,0.028138788,-0.04721833
-0.01543694,-0.012557407,0.008728335,-0.0020003314,-0.011278168
-0.037496597,0.036662277,-0.022200486,-0.023016626,0.01728863
0.0009438211,-0.011948524,-0.004537001,0.0023197734,0.010263297
-0.13248658,-0.06503952,0.006973284,0.02061248,-0.0042569567
-0.085952945,-0.07992516,0.0051876768,0.12631929,-0.048869245
-0.017906535,-0.01630039,0.016462209,0.019495398,-0.0067033125
-0.007378539,0.0019957665,-0.0065182745,-0.003076975,-0.010983196
0.011687579,-0.008663734,-0.0059578014,-0.014743822,-0.021345401
0.09828113,-0.06265421,-0.069665484,-0.060235415,0.008225689
-0.013814892,-0.113933705,-0.061766107,-0.1464827,0.122161455
-0.13423923,0.08151139,0.009924981,0.0408424,-0.107058845
-0.051916417,0.042603523,0.044430733,-0.05207357,-0.029056098
0.07963837,-0.0035446198,0.05065646,-0.06011759,-0.029099163
0.021152806,-0.067960285,-0.015035719,0.048499223,0.018514702
-0.0027177583,-0.0031758244,-0.023084657,-0.024741244,-0.0100122895
0.113588594,-0.03556239,-0.04669175,-0.037963346,-0.11728277
-0.026034838,0.016604377,-0.0007474861,0.00033294474,-0.045682058
-0.02139955,0.009239101,0.013151192,0.009279547,-0.04269499
0.13753234,0.015355496,-0.12988259,-0.025925474,-0.019966595
-0.029174734,0.018289462,-0.015437683,-0.011509854,-0.057585124
-0.066807814,0.049846385,0.013601568,0.0248374,0.026652906
-0.049066786,-0.0058963248,0.10200132,0.03905835,-0.06380242
-0.040037997,-0.043605316,-0.0068874345,-0.0056170085,0.04397538
-0.04082363,0.0063284435,0.025782887,0.023875235,-0.0051382924
0.00762812,-0.056770965,-0.12536061,0.11499607,-0.17069498
0.0773553,-0.021648413,0.034323495,-0.0049425736,-0.03601369
-0.021959746,-0.004298963,0.022447892,0.00034147993,-0.006676215
-0.035297208,0.035127588,0.042180233,0.027657652,0.00076291396
-0.017475989,0.04303329,0.005864066,0.020963155,-0.01366813
0.03784539,0.008965211,-0.089592844,0.089037396,0.0033684
0.0057996125,-0.0010965585,-0.025141273,-0.017165942,-0.04866397
0.020940127,-0.014137652,0.03710817,0.023367848,0.040660094
0.07190332,0.033958785,-0.040501602,-0.022746144,-0.027278056
-0.0022764434,0.028235,-0.008692924,0.06281484,-0.122414626
-0.099516936,-0.005819384,-0.056338407,0.04288603,0.014464631
-0.0016062309,0.02154561,-0.03830009,0.0099961655,0.019879138
-0.029836304,-0.02738962,0.0033761659,-0.007446591,-0.019529454
0.011946422,0.005353577,-0.040304806,-0.02398835,0.03735867
-0.01004169,-0.02572377,-0.015369961,-0.003599524,-0.011085719
0.018792428,0.0142688295,0.003922693,-0.028995505,0.011340096
-0.017210286,-0.005094003,-0.08051676,0.030069109,0.0076058228
0.010278257,0.091579214,0.07034591,-0.005043728,-0.036428127
-0.04613607,-0.05203732,-0.020006582,0.02291126,0.040538996
0.06975837,0.004440585,0.012691237,-0.0409333,-0.012392576
-0.0013402551,0.0136039,0.035258513,0.013100407,0.023546044
0.018774714,0.01045387,0.03081314,-0.049303245,0.05469514
-0.011635419,0.012519181,0.0021850278,-0.006331069,0.028158065
-0.017043252,-0.019208178,-0.07047269,0.04319364,0.008894902
0.05539619,0.03628468,-0.10756135,-0.10193548,-0.105918966
0.008436655,-0.017277783,0.012939943,-0.004873403,-0.04409541
-0.09946266,0.08541566,0.06412225,-0.059470214,-0.108724885
-0.0331434,-0.0063035074,0.0026026506,-0.004021053,0.0065320944
0.013382899,-0.04517976,0.0026966073,-0.0031507993,-0.014728763
0.12141403,0.011557459,-0.058857277,-0.11003692,-0.12933962
0.040204864,0.00234191,-0.063861236,-0.0018075064,-0.039601035
-0.02407325,0.039866228,0.0035271144,-0.022888305,0.014007581
-0.0075090206,-0.015614889,0.020680713,0.012324216,-0.00024669024
-0.019251743,-0.023693647,-0.014995756,0.0015261674,-0.006533795
-0.028839039,0.107827865,-0.06269348,-0.08126648,-0.16481818
-0.012097796,-0.020030182,-0.07853734,0.04080115,-0.006018152
-0.0061274273,-0.021176046,-0.032168575,0.03511374,-0.001009095
0.045976385,0.026886411,0.011060082,-0.15247707,-0.024729557
0.021438228,-0.019993806,-0.0058179107,0.006673625,-0.03413694
-0.01894776,-0.013429355,0.01240716,0.00916491,0.013157533
-0.009732129,-0.01712599,0.07461311,-0.112782605,0.044078737
-0.09540556,0.06796991,-0.059448536,-0.023348497,-0.0817013
0.01109403,-0.0064201895,-0.008970663,-0.00028142208,-0.025187597
-0.01696202,-0.054778803,-0.071463086,0.058222324,-0.08534383
0.053081173,-0.022267291,-0.101327464,0.00578903,0.022580663
0.07323825,-0.05054914,0.03547705,-0.06410164,-0.1437566
0.017110322,0.0064956183,-0.050301194,0.0029844667,-0.09958047
0.036201492,0.057207786,-0.054222643,-0.028708002,-0.052627373
-0.12633474,0.0036615983,-0.08504475,0.048331946,0.04312007
-0.007820316,0.036275342,0.0029718278,0.05185235,-0.025312893
0.0042592883,-0.04106276,-0.0361869,-0.015463785,0.04274263
-0.00409822,0.028855702,0.045160033,0.104614966,-0.13582058
-0.024357306,0.0149295535,-0.009399053,-0.016034666,0.025538566
0.042142063,0.03542816,0.0008036953,0.025673842,-0.005145154
-0.02003326,-0.026114244,-0.061500292,0.026711652,0.0042666676
-0.00039712738,0.007275443,0.05915925,-0.047849614,-0.02930862
-0.013600372,-0.015322838,0.097835205,-0.0830583,0.03649479
-0.0024357846,0.09798062,-0.048765756,-0.012367663,-0.13519627
-0.054977715,0.005561493,-0.012326761,-0.09880416,-0.008392479
0.023374412,-0.042796295,0.03324545,-0.0018270429,0.04161898
-0.016900247,0.03855298,0.010365469,-0.064220384,-0.10338076
-0.03007554,0.06292417,0.07756608,-0.06491817,-0.097981885
0.05942288,0.11085426,-0.07469362,-0.15116563,-0.07756863
0.011521406,-4.9188882e-05,-0.017409807,0.0064106863,-0.026229057
-0.020864062,-0.0021094761,-0.02951046,0.014808416,-0.022636
0.012376335,0.031026684,-0.013318598,-0.016279556,-0.010095795
-0.01043483,-0.01168221,-0.010446275,-0.004343948,0.01107531
0.04611168,-0.026325742,-0.010749631,-0.03473024,-0.0028175414
0.00086019764,-0.017699344,-0.017949669,-0.020819947,0.000244495
-0.026896423,0.026990477,-0.03758999,-0.026758756,0.0004924979
-0.17146462,0.02752995,-0.17557234,-0.04292391,0.09679572
0.029751481,0.044876665,-0.017467333,0.0073276833,-0.0034190505
-0.018499492,0.026983052,0.0018678581,0.004214593,-0.0508236
-0.02692178,-0.0045567774,-0.009961782,0.008444192,-0.0015455465
0.0062811603,0.039438404,-0.029401582,-0.0009378475,-0.0024790906
-0.02849483,-0.020836914,0.014488121,0.029014757,0.010665103
0.007195948,0.006335672,-0.014100944,-0.010118117,0.01941083
0.085261814,-0.03255716,-0.0036920756,0.044443887,-0.07583243
0.00048743683,-0.025640909,0.0072502843,0.006842376,-0.009565486
-0.0025513654,0.024518255,-0.018419828,0.0026888954,-0.04121672
-0.07999409,0.040355656,-0.020341134,-0.0040262584,-0.044431783
0.0074716397,0.033157166,0.018522823,0.006006264,-0.012460778
-0.040805943,0.01854459,0.0694133,-0.036835596,0.030587982
-0.014701507,0.0011414322,-0.0380625,-0.0304265,-0.027958047
-0.0010432273,-0.028839892,-0.009402693,0.050206043,0.0170111
0.0057047554,-0.023506537,-0.044991247,0.018295841,-0.0016145238
0.018335398,-0.007027927,0.040741548,0.0125618735,-0.018853748
-0.017469132,0.057117447,-0.13418622,-0.037057266,0.023832487
-0.076454766,0.046622194,0.06897794,-0.09337653,-0.07497512
-0.01910132,0.03278752,-0.00742265,-0.007934006,0.004885324
0.00082487933,-0.011947319,0.031464905,-0.027844755,0.019360345
0.06555722,-0.005269755,-0.057731576,-0.021713374,0.007960517
0.0021356274,-0.020386769,0.03362428,0.019344814,0.07095952
-0.041228745,-0.024437357,-0.051784072,0.062261038,-0.06309764
0.06100528,-0.02688095,0.057260673,-0.018399231,-0.086024664
0.0027977517,0.034267377,-0.02140787,0.0071149,-0.0021229435
-0.092672765,-0.03401442,-0.010020852,0.06598188,-0.03782895
-0.001504971,0.019786747,-0.0024777853,0.017349806,0.006473163
-0.051621586,0.07123843,-0.18435031,-0.12124808,0.14567038
0.028103162,-0.0048800833,0.015850276,0.045090064,-0.03987797
-0.10596333,-0.023914795,-0.08514082,0.05424311,0.06701569
0.025597164,-0.050452515,-0.027175693,0.015351276,-0.027541367
-0.023395779,0.02239216,0.05140485,-0.031521264,-0.015610401
-0.02726097,0.02027778,-0.025084004,-0.010505623,0.012689244
-0.021379028,-0.02817511,-0.018040763,-0.0097237555,-0.021138638
-0.081200644,0.09253189,0.030035052,-0.031042974,-0.038098402
0.0024553484,0.018287078,0.015259705,-0.010114202,0.0021416286
0.015529298,0.037968595,-0.004106121,-0.010370692,-0.0061800894
0.0367366,0.0067455685,-0.015614339,0.0066568153,-0.031059746
0.026736168,0.02875712,0.0103137735,-0.03304042,0.043684654
0.017209379,-0.0081479885,-0.014957818,0.011985724,0.040858675
0.08078314,0.07055586,-0.085779585,-0.052476462,-0.10018263
-0.08012016,0.15018634,0.028106896,-0.061721385,-0.11229475
-0.025259675,-0.13776788,0.12654305,-0.019046504,-0.051821534
8.060294e-05,-0.021484597,-0.023158813,-0.018755084,-0.0119071985
0.003783678,-0.08773848,0.0052152765,0.055667963,0.02103921
0.012179111,-0.02290262,-0.013782345,-0.008039873,-0.006678152
0.043265622,0.053224977,-0.012252773,-0.013784764,-0.019394463
0.03946367,0.030521609,-0.062738255,-0.10895632,-0.06432975
-0.029191706,-0.02489125,-0.00039202016,-0.023836525,0.03415349
-0.009835475,-0.007873707,-0.025709575,0.0010414991,0.043607228
0.012532917,-0.0367682,-0.006049347,-0.0089110155,-0.0042101936
0.0007357541,0.0021959916,0.028111525,0.031864364,0.015043704
0.026215365,0.008483157,0.023553075,0.009201343,0.04540924
-0.07359947,-0.03257475,0.0663011,-0.15280476,0.029743163
0.01483015,-0.009754755,0.009922247,0.0052643833,-0.012045216
-0.012555274,-0.031059058,-0.017378548,0.023564558,-0.06930749
0.0022812025,0.024017202,-0.04206996,0.021189231,-0.019309336
-0.026126005,0.022634031,-0.085044116,0.0051243417,0.03994993
-0.02754175,-0.0070092254,-0.011573722,-0.024652079,-0.013996583
-0.07738518,0.03627323,-0.0126082,0.002371767,0.02058965
0.0058156475,0.027937338,-0.037806414,-0.010911774,-0.0035062649
-0.13753097,0.06280686,-0.06393145,0.13627118,-0.12315419
0.02416268,0.0070275827,-0.019779345,-0.010853512,-0.0062890644
-0.01918482,-0.0052270344,0.041376077,-0.0033352543,0.016371414
-0.031379398,-0.016555017,-0.041374557,-0.0077746194,-0.02551749
0.06358667,-0.046726376,0.005458349,0.017249376,0.025060581
0.011085541,-0.0035973268,-0.03536464,-0.015125716,0.0020922022
0.018561121,0.011818213,0.024386501,0.037403602,-0.021579692
0.026344433,0.030654997,-0.04826116,0.02742498,-0.0666454
0.018760314,-0.022072088,-0.012972593,0.046951894,-0.04162554
0.005304495,0.013505868,0.0015167308,-0.04773849,0.018132206
-0.12707601,-0.16383009,-0.04987977,0.17385729,-0.053477023
-0.015160023,0.013351856,0.045661885,-0.044354826,0.0003449856
0.005572619,0.11266859,0.008622798,-0.19847411,0.13472474
-0.05575272,0.16321376,-0.06341145,-0.018164333,-0.10627788
0.062475406,-0.022632219,-0.084188625,-0.10604598,-0.081419714
-0.0239031,0.037209764,-0.02185054,-0.006998045,0.009465883
-0.04948444,0.014209309,-0.023365773,-0.0029564667,-0.032566637
0.004140402,-0.040964894,-0.02233625,0.010247511,-0.011925695
-0.029325152,-0.02385407,0.024781853,-0.0006861914,0.04290279
0.04604023,0.048170608,-0.0088027585,-0.10265408,-0.103931494
0.014060979,0.04283942,-0.016786324,-0.022112988,0.026520288
0.02085667,-0.04277322,0.011430464,0.038090482,-0.024215275
0.008587029,-0.013623427,-0.04525568,0.035456385,-0.029238151
0.006049561,0.05211103,0.01497034,-0.04821809,-0.047528137
-0.01200491,0.070294246,-0.016843176,-0.0708276,0.012560088
0.0067372113,-0.02230314,-0.0048855077,0.044379834,0.027620645
0.02126204,-0.019478546,0.01548339,0.00894322,-0.005017621
-0.10668056,0.05233623,-0.05730832,-0.05475508,-0.12636535
0.03522538,-0.03409285,0.008894676,-0.03811564,-0.025108833
0.016974723,-0.06101087,-0.10698986,0.05118536,-0.08214955
-0.04201474,0.016616376,0.041369412,0.03589691,0.018407451
-0.02741542,0.05075197,0.017480513,0.016938057,0.028479703
-0.03340606,-0.051525038,-0.051777367,0.031415302,-0.050591573
0.11297218,0.03223034,-0.12502849,-0.07892813,0.050134134
-0.051589534,-0.06552287,0.07502151,0.0054450226,-0.05749391
-0.0022736355,0.036294006,0.017768718,0.020535812,-0.003935658
0.032130856,-0.03361687,0.003091419,0.005768339,0.017313438
-0.039865755,-0.0010517989,-0.027127864,0.017438022,0.007185831
-0.023097439,0.025681581,0.012666588,-0.019031253,-0.026201895
0.010990591,-0.014695905,0.030990371,-0.0074791415,0.015773732
0.040750455,-0.03705301,0.018219413,0.026438152,-0.032222964
0.08508159,-0.0067356178,-0.050810546,-0.02598364,0.030161457
-0.0011750106,-0.032669384,-0.025302473,0.02517235,-0.0029990214
-0.03103133,-0.082046054,0.028810618,-0.014589978,0.037497785
-0.031688962,0.05499472,-0.083846055,-0.027456528,-0.01198657
0.019040102,0.03431302,-0.0062115295,-0.010177654,-0.021242123
0.00758747,0.0048251487,0.030703757,-0.017956026,0.018101238
-0.0362286,0.121050976,-0.07077363,-0.12922867,-0.08060175
0.0730485,0.08701592,-0.064099275,-0.08378402,-0.0813804
-0.002681821,-0.0047864374,-0.014608525,0.035898022,-0.010590184
0.018154986,-0.014331752,-0.062783435,-0.014491187,-0.013167806
-0.009921842,0.016912268,0.01330574,0.0077011297,-0.019816248
-0.031062085,0.020662006,0.006813143,-0.029787794,0.009540252
-0.044102978,-0.006545976,-0.004146717,-0.019905584,-0.008848006
-0.0023531618,-0.0072565493,-0.03695634,0.026473505,-0.023296302
-0.00855071,-0.027470924,-0.037357558,-0.005612286,0.02064349
-0.038598333,-0.047512345,0.08325056,0.08993647,-0.060896523
-0.010505566,0.0064655473,0.005032871,0.030218672,0.0017992834
-0.05688128,-0.027642759,-0.07643915,0.042226303,0.0023700814
0.039212923,-0.045787774,-0.022146337,0.05269527,0.0130585125
0.007872846,-0.113777965,0.06545029,-0.12794822,-0.020066999
-0.023731068,0.00228231,0.00077618787,-0.021297207,-0.0056019225
-0.04052778,-0.0024238804,0.005931073,0.014076529,0.026828237
-0.12444576,0.13504857,-0.11395637,-0.052161038,-0.06942464
-0.011778262,0.024637097,-0.061222825,0.017828668,0.05896439
0.013883679,0.005541683,-0.034145016,-0.024461206,0.041074447
-0.03741491,0.02325064,0.019731615,-0.041627467,-0.040790975
0.04887721,0.049045257,-0.06815903,-0.008511083,0.10469712
0.014029355,0.026156576,0.042103015,0.020038921,0.0045610843
0.025602011,0.018886026,-0.03824394,0.02807157,-0.012721959
0.0110497195,-0.014669312,0.022244457,0.041402347,-0.012592862
-0.05375113,0.15994596,-0.07988676,-0.08900394,-0.09672931
0.010486389,-0.045626245,-0.013009156,0.0072467364,0.03483178
0.049796764,-0.009376106,0.067146674,-0.038803995,0.0420414
-0.041385766,0.030501207,0.00045155518,-0.054437608,0.046974514
0.017868476,-0.0013945408,-0.010137781,-0.030134939,0.021795783
-0.035287198,0.055219803,-0.104568064,-0.020223962,-0.15400833
0.0053960565,0.031073255,0.01452019,0.037737258,0.009947971
0.039350253,-0.03438355,0.030546853,-0.00938557,-0.054845057
-0.0005085584,0.09002774,-0.110698774,-0.06466673,-0.104051165
-0.008442914,-0.0057855328,0.015793657,-0.0064122938,0.0030584747
-0.029966708,-0.040966786,0.0043604746,-0.007030157,0.02295025
0.019877069,-0.01799456,-0.010240247,0.014161526,0.004371788
0.05542546,0.06823242,-0.06443724,-0.14778592,-0.021696163
-0.06984476,-0.042296633,-0.03880319,0.036199518,0.0037649653
0.005685854,0.026776487,-0.01399336,-0.00036329104,-0.009243878
0.038658924,0.15137993,-0.05881583,-0.115308255,-0.10293398
-0.068223,0.07484834,0.020858362,-0.040568054,0.014559098
0.016482137,0.022478908,0.014552951,0.00059980457,0.001923659
-0.011435385,-0.08999102,-0.06544996,-0.033364035,0.07615247
0.011539565,-0.077430606,0.08736184,0.026901659,-0.067133404
0.04892317,-0.029247154,-0.04722559,0.012297256,0.03926769
0.011470625,-0.031574406,0.009669918,0.005954132,-0.0026686697
0.015634391,0.01270979,-0.025603734,0.025791813,0.0055023055
0.024123855,0.009507788,-0.007354742,0.016955351,-0.0007110698
-0.009046582,-0.0150066,-0.03423549,0.025729187,0.038512763
0.029691719,-0.029230827,0.0007132343,0.011455112,-0.024746267
-0.040684175,0.03215523,0.02064839,-0.013915469,0.015387252
0.09463342,-0.038164433,0.05767236,-0.07737769,-0.036415156
-0.04861474,0.045841973,-0.065446906,-0.059479713,-0.062422235
0.0076832343,-0.005738139,-0.022227027,-0.0051770676,0.022382995
0.022381438,-0.096540175,0.08188246,-0.059778623,-0.1058196
0.01791203,0.07359864,0.029134484,-0.14075623,-0.027733494
-0.04030491,-0.10126321,0.053319275,0.1532516,-0.14818281
0.031452373,0.0013740981,0.016705014,-0.014895834,0.040351536
0.034000624,0.0039369618,0.0015059067,0.04462663,0.014840107
0.03155627,0.029881002,-0.023483008,-0.0829853,0.04695662
-0.015313197,-0.008699018,0.029561017,-0.06562785,-0.014757126
-0.035079006,-0.0012771158,-0.009941809,0.044344794,0.0035717257
-0.1082853,0.04221451,0.034649454,-0.06593135,-0.076321304
0.03683615,-0.08170003,-0.047831647,0.008495138,-0.013020574
0.03546287,-0.028258452,0.014493864,0.04340408,0.027230972
-0.014778068,0.043562643,-0.06394938,0.03731876,-0.07841872
0.022392094,0.0017203013,0.0064473525,-0.02094516,-0.01728893
-0.06447268,-0.10870658,0.017399892,0.054048385,-0.09331729
0.024750544,0.025743132,-0.023684697,-0.003828912,0.01133532
0.057478026,0.014546285,-0.0049297875,0.054566715,0.0003533518
-0.008489465,0.0099802185,-0.0010379743,-0.044298764,-0.011455493
0.010907865,-0.023443945,0.023023807,0.030783046,0.031111153
0.036562998,0.018995766,0.019337194,-0.048465338,-0.021755613
0.009694403,0.12572064,-0.0730179,-0.082470745,-0.08866275
-0.015935792,0.013304717,-0.028027784,-0.02896724,-0.023821363
0.027009262,-0.08863567,0.054889034,-0.006056516,-0.054673243
0.019801293,-0.0038725678,-0.15880276,0.057426054,-0.06499414
0.032007884,-0.03325417,0.025771357,-0.033153206,0.00047749924
0.045530465,-0.05101545,0.0029164408,0.0039134854,-0.03369579
-0.039377324,0.14909552,-0.11154224,-0.033987515,-0.0004367352
-0.031406257,-0.0014140087,-0.057035293,0.033325296,-0.0053061615
-0.120903604,0.034475394,-0.09620045,0.012674022,0.08774291
-0.022291709,0.006998067,0.04724688,-0.041283302,-0.00538586
-0.0033773072,-0.0071004685,0.01842502,-0.02031487,0.010248771
-0.0531537,-0.015056562,-0.013824812,0.0010631867,0.048903506
-0.019802205,0.01144756,-0.03355432,-0.043138858,-0.052407086
-0.008978405,0.0013164156,0.0062509486,0.0110525405,-0.003890449
-0.035202976,-0.028806327,0.017264802,0.025816612,-0.015106944
-0.0041417656,-0.015496097,-0.033434957,0.0029108345,-0.0069413832
0.015129361,-0.018086787,0.00790095,0.00015778141,0.0232324
0.06593503,-0.01794557,0.009711606,-0.010942643,-0.02395085
0.004383209,-0.014380988,0.103944466,-0.009162749,-0.0714739
-0.0049361675,0.005855367,0.023721086,0.008955536,-0.017061358
-0.12357373,0.023623668,-0.05489959,-0.060137097,0.07387512
-0.005302906,0.015067742,-0.05083718,-0.035093904,0.0016860862
0.014507148,0.007341306,-0.009430353,-0.0038423878,-0.0049082614
0.027877571,0.023174573,-0.14397396,-0.001369631,0.014417851
0.11399264,-0.13916002,-0.09683482,0.033312783,-0.06485015
0.018618168,0.03542588,0.026121078,-0.026651839,0.0004630341
0.03000438,-0.031616166,0.009978476,-0.014241925,-0.017833773
0.060268573,0.025918748,-0.14996746,0.038254272,-0.026449652
0.039340056,0.09490931,-0.035954487,-0.03824399,0.041691408
-0.0010289366,0.019262727,0.009426705,-0.030671107,0.021617742
-0.05456735,0.03127725,-0.02142306,0.04027898,0.026445305
-0.010946738,0.019411372,0.01513042,-0.03784651,0.005475124
-0.018799968,-0.0035195765,-0.013510899,0.046803486,-0.00917029
-0.06668499,0.08735935,-0.068117715,-0.060895957,-0.096760534
0.047458194,-0.04689438,-0.03943729,-0.007442009,-0.054757874
-0.04534432,0.010303425,-0.014504885,0.0067771114,-0.036404874
0.00015674562,-0.00621183,-0.02725066,-0.026217666,0.00022818857
-0.04374534,0.08173624,-0.07340838,-0.009970212,0.0019312663
0.032552816,0.04299939,-0.017443636,-0.005283466,-0.018948453
0.09587987,-0.050567366,0.0014592666,0.00345257,0.032598447
0.034359712,-0.051576104,-0.011587769,0.016044395,-0.016697023
-0.023399632,0.031591583,-0.034482487,0.0029092,0.0026220393
-0.13477057,0.11187229,-0.14083081,0.0030766074,0.053524856
-0.0008370644,0.025167203,0.017720032,-0.03597613,0.036412876
-0.037861265,0.012768628,0.010492368,-0.041218035,-0.014322884
0.031952586,0.0074020065,0.015908254,-0.02424524,0.06700787
-0.0053744977,0.0022078527,-0.0031268757,0.011309394,-0.025048228
0.121625185,-0.11616414,0.036252484,-0.101956576,-0.14025497
0.0035342942,0.010218372,0.013184278,-0.034089804,0.035811976
0.004459957,-0.009135605,-0.02790642,0.010415252,-0.00043054993
0.030727766,0.022905523,0.006752835,-0.038402345,-0.0013544285
-0.09226424,0.10244717,-0.07526047,-0.089473136,0.043613218
-0.018635832,-0.048520125,0.0015775076,0.019409014,0.01475069
-0.13335754,0.05854671,0.065577336,-0.11023574,0.15253635
0.014633875,0.009065895,0.012899736,0.0057738023,-0.03210912
-0.07682366,0.027730528,0.06016917,0.014929293,-0.040801775
0.0027972946,-0.033779375,0.01637624,-0.00031204885,-0.019766456
0.0021367231,-0.026261419,0.0379039,0.010948902,-0.0354523
0.044923235,-0.026533078,-0.010849288,-0.022264965,-0.047790494
0.013389061,-0.008561865,0.0010845481,-0.014629421,-0.04632879
-0.022142785,-0.00073631504,-0.001240037,-0.09991365,-0.01846548
0.043101564,-0.046918657,-0.009993486,0.00023094432,0.004924753
0.040287927,0.005557419,-0.034804165,0.0203483,0.021106966
0.026485682,-0.03156032,-0.018864792,-0.0076285936,0.008697599
-0.022695627,-0.08880391,-0.01665795,0.022074658,0.10630353
0.034929823,0.02894432,-0.03470161,-0.061637748,0.01872089
0.003079726,0.0033275883,0.02115966,0.012283637,-0.1401616
-0.02761395,0.0384973,-0.04255466,-0.030177994,0.009400967
0.04651862,0.0026216914,-0.058787912,0.03338437,-0.0857348
0.04268783,-0.019083764,0.02004103,-0.00458717,0.00041246714
0.042620827,-0.03480488,-0.037159383,-0.0028373227,-0.008457768
-0.015118399,-0.06526253,0.0075722267,-0.0337132,0.027343025
0.046569537,-0.009737134,-0.020144815,0.0025919215,0.011243948
-0.015700188,-0.034393102,0.03074915,-0.017425701,0.03968005
0.012087603,-0.07695193,-0.041180376,0.012206032,0.012289596
-0.021197958,-0.02109807,-0.035638105,0.04798431,0.05366472
0.031098409,-0.0272031,-0.096005365,0.116072044,-0.055375982
0.07898797,-0.11332655,-0.080385625,-0.05702603,-0.07860465
-0.0050781695,0.008147108,0.00012314897,0.0499614,-0.01469692
0.026531694,0.006706408,0.006896564,0.040643025,0.03287011
-0.011496623,-0.014315383,-0.102022454,0.020686196,0.037205916
-0.021062868,0.021656487,0.0690646,0.14169858,-0.12832978
-0.04319315,-0.012510898,0.008766759,9.645519e-05,-0.023605976
0.0028186464,-0.01882022,-0.023711143,0.005714716,-0.00040668083
0.011813442,0.026727611,0.040835887,0.039602187,0.021234684
-0.016528796,0.0016966207,0.006340355,-0.028913487,0.034830045
-0.0015837421,0.007359385,-0.057498798,0.0052515566,0.0028896376
0.0011992301,-0.03262826,-0.0066190306,0.013207347,-0.027113046
-0.07799382,-0.009062636,0.09228413,0.05317409,-0.11254993
0.028792745,-0.08146331,0.05114305,-0.031735193,0.028565347
-0.026818208,0.015631447,-0.0027460014,0.065959126,-0.045258954
0.008763861,-0.012577441,0.025823874,-0.013374245,0.040408615
-0.011017925,0.087595984,-0.106050044,-0.002604787,0.028127948
0.024430053,-0.016749619,0.048804365,-0.12107612,-0.06654412
-0.031859867,0.021015316,-0.12399239,-0.023525154,0.14217593
-0.009601243,0.034478407,0.0006433484,-0.017755013,-0.031626996
0.040667005,0.07333454,-0.077144876,-0.16623886,0.0055212374
0.064918056,-0.042302877,-0.015408272,-0.018128024,-0.016258007
0.007870926,-0.020285334,0.052511893,-0.04154359,-0.028808292
-0.05578745,-0.019227885,0.073048234,-0.045537047,-0.036150146
0.0024931284,0.012417319,0.04511899,-0.003382043,-0.046016622
0.115795076,-0.0059757354,-0.04899174,0.03468168,-0.092130505
0.0206985,-0.043530755,-0.02292702,-0.0005368267,-0.0067252168
-0.10356001,0.09424086,-0.06514297,-0.09095016,-0.040713426
-0.06635932,0.09872088,-0.1204241,-0.09960596,-0.12311946
-0.048009768,0.046280246,0.005821757,0.011763547,0.053507976
0.10040742,-0.17201525,-0.13741599,-0.0087618325,0.07047572
-0.0169311,0.009707576,-0.0062489025,0.01188298,-0.025641168
0.025566593,0.11344512,-0.19178423,-0.13119929,-0.102217145
0.031133572,-0.08465648,-0.0757848,-0.063196935,0.06294614
-0.030840617,0.028746696,-0.016819322,0.007357906,0.017623352
0.08265827,-0.1532515,0.035527047,0.036417224,-0.018304389
0.010232245,0.010587851,0.024370896,0.035624795,0.014551033
-0.06166678,-0.1174829,-0.03842425,0.067172386,-0.08866658
-0.0804307,0.022690699,0.024789348,-0.01600352,0.0015455147
-0.04501499,0.031477224,0.011436263,-0.00685386,0.017329546
0.062010948,-0.020757388,-0.0659987,-0.01135613,0.021562008
0.0050324956,0.0064211264,0.021558266,-0.009257722,0.00018690836
0.01581346,0.040299576,0.019507138,0.04305205,0.0055815075
0.06200387,-0.06366453,0.004270716,-0.013418991,0.0010155671
-0.09677445,0.0713022,-0.06274059,-0.015240769,-0.017039962
-0.08951499,0.05674438,-0.10749007,0.027815213,-0.11384069
-0.03322447,0.018123463,0.007819663,-0.0068530147,0.010905176
-0.0065930597,-0.008289242,0.03178157,-0.033851914,0.009562033
-0.0061240643,0.0127774775,-0.0073333266,-0.023703622,-0.021607056
-0.11049279,0.114142515,-0.17669228,-0.030830955,-0.06455162
0.06421658,0.041899726,-0.046416853,-0.099400766,-0.13560656
0.0098317135,-0.077225275,-0.05911167,0.001037956,0.05443621
0.053557843,-0.09610355,0.018736782,-0.03317204,-0.0758232
0.05001639,0.116113156,-0.072102316,-0.2069912,0.023252148
0.023138301,-0.03792473,0.031148205,0.04140155,-0.03433079
0.002484139,-0.022932332,-0.0172644,-0.025228158,-0.0113431085
0.019506838,0.01172809,0.0031761187,0.051508985,0.0056322664
0.014952903,-0.010995748,-0.0014190542,-0.0045816717,0.007668673
0.073816426,-0.09010058,-0.09675753,-0.03117816,0.046722196
-0.01904534,-0.035104614,0.006672872,0.019171868,0.016756997
0.087891586,-0.076564096,-0.059118386,-0.077855825,-0.113327995
0.031704124,0.019238919,-0.025762672,0.020820469,-0.03200792
0.031843785,-0.020594072,-0.08151863,-0.021427544,0.04261518
0.048187036,0.044694412,-0.016046198,-1.1188902e-05,0.0179698
-0.024282992,0.047372784,0.008177126,0.024803586,0.01875581
-0.01986945,0.016209666,0.0129474625,0.012044601,-0.041593812
0.05562475,0.082409255,-0.09000952,-0.0464107,-0.033364423
0.03130864,-0.0009927704,-0.064900875,0.046719626,0.021031506
0.01758579,0.033216853,-0.0030258317,0.001999237,-0.025735123
-0.031351626,0.051701058,-0.012084683,-0.009761758,0.0047106016
-0.002627938,0.033568665,-0.020982103,-0.032196846,-0.0012523711
0.084075786,-0.15714061,0.093383074,-0.019121783,-0.10637558
0.03868396,-0.014172026,0.011257479,0.009051168,-0.01448207
-0.013523041,-0.06495398,-0.025024734,0.017764961,-0.00016059619
0.021849582,0.0027543881,0.025373166,-0.012993826,-0.048243005
-0.05059347,-0.03995186,0.06604911,-0.093387745,-0.059395444
0.0027030203,0.008333153,0.039583948,0.018344399,-0.051219713
0.032490402,-0.037271112,0.016229618,0.024575347,0.008257766
0.022728095,-0.007988578,0.016873488,0.054357253,-0.010244091
-0.013519218,-0.026184376,0.006983709,0.045610495,-0.020723188
-0.00012406019,-0.014641875,-0.035691034,0.0068414747,0.040507812
0.009517557,-0.0059129274,-0.013786561,0.021721344,-0.056202292
-0.06539981,0.08356547,-0.019279245,-0.047235683,0.029017521
0.13448276,-0.16957365,0.03523172,-0.04665145,-0.01632798
0.0070146266,-0.025563864,0.021925647,-0.014843781,0.01641031
0.10187494,-0.049945615,-0.058689255,-0.02999457,0.015636938
0.06574106,0.0033794204,-0.1348626,0.010025952,0.049518522
0.004320559,0.02900172,-0.040728565,0.039404005,0.035018135
0.007355223,-0.009890216,-0.018025672,-0.0076381913,-0.025300665
0.04513295,0.00034914722,-0.0041228193,-0.0158732,-0.0068538575
-0.040045988,0.01547487,0.0037579888,-0.005222573,-0.010473401
0.043632686,-0.02227961,0.043478183,0.00043325883,0.042614955
0.006953976,-0.04930558,0.016025545,-0.01127615,0.027559966
-0.043994717,-0.010864827,0.061979774,-0.0007975208,0.02651152
-0.028638653,-0.0464575,0.02627425,0.012998237,-0.008008963
-0.020439943,0.046686385,0.006264759,-0.031350005,-0.018696891
0.015901886,0.03800039,-0.068512306,0.010741764,0.019354962
0.012464435,0.025607537,-0.057444967,-0.021403892,-0.03289749
0.009628236,-0.03691357,0.0538511,-0.044918675,0.02977926
0.019506784,-0.010466208,0.010365787,0.01562914,-0.010920141
-0.061954718,0.053229645,-0.016470665,0.04657196,-0.03553946
-0.008013334,0.016826697,-0.010420842,-0.024358513,0.010967659
-0.015289612,0.006536097,0.009412242,0.030656392,-0.027316365
-0.074510075,0.0018093268,-0.0042174375,0.05861113,0.039539978
-0.030607896,0.024551606,0.043583527,-0.0015243501,-0.06103698
0.018490458,0.015256317,0.005749794,0.0049195695,-0.0006477993
0.009927169,-0.040530734,-0.02702624,-0.005473024,0.00072815974
0.11812857,-0.09263544,-0.06662741,-0.1012215,-0.13664557
-0.05862882,-0.09346239,0.11477912,-0.023334932,-0.0888546
-0.021869007,0.05961035,0.019442553,-0.071694985,-0.08045191
0.0053164214,-0.0041203112,0.052273136,-0.03984416,-0.026646324
-0.03680395,0.05505506,-0.013386101,0.0215427,-0.10799993
-0.0021039958,-0.11655595,0.00014402489,0.03358377,0.06386547
-0.007707553,-0.028507503,-0.02513149,0.0023754868,0.013894625
0.048759878,0.039410844,0.023445584,-0.0016713517,-0.0401511
-0.0018264386,-0.0084679425,-0.0056288657,0.029660886,0.0062095835
-0.004161051,-0.07188193,0.019162955,-0.037910864,0.025609726
-0.034261744,-0.02563103,-0.0032613114,0.009950366,-0.003303334
0.0074531124,0.0014695125,-0.042940084,-0.08046648,0.07374717
-0.038572233,0.041418526,0.0033051556,0.017160123,0.025874116
-0.013044685,-0.025558488,-0.04183837,-0.035232317,-0.030910483
-0.0348611,0.03244147,-0.015513425,0.052869007,-0.007565541
-0.11689311,0.10170186,-0.1328123,-0.16008154,0.12525839
0.029385552,-0.012962934,0.0051840646,-0.011349826,-0.016672673
-0.014550462,-0.042741314,-0.016525734,-0.0151991015,0.0454542
-0.033307504,0.027828049,0.019143414,-0.013503082,-0.00682876
0.063559815,-0.060216304,0.018727433,0.008851068,-0.058602616
0.024215577,-0.0058843987,-0.009804208,-0.0036934924,0.026508957
-0.023823008,-0.0013311371,0.011826613,0.011934182,0.010150248
0.013992554,-0.01211553,0.011548394,0.00086268084,0.011103722
-0.028091393,-0.05779801,-0.00033054862,0.057266142,-0.011457666
0.004749326,-0.018905673,-0.011412961,0.0018386313,-0.0098385345
0.014993347,-0.0033648273,-0.045545693,0.008788173,0.020537278
-0.0015533727,-0.0128092775,-0.033722218,-0.03548079,0.07165697
0.03574147,-0.012248403,0.032225896,0.02351776,-0.03198716
0.06107895,-0.10129492,0.019332064,-0.102061056,-0.12766558
-0.011026256,-0.015117874,0.04758706,-0.00433856,0.026589451
-0.00483075,-0.01336603,-0.04660689,0.02564898,-0.01565307
-0.03042087,-0.028108198,0.024962675,-0.032452773,0.053753953
0.0034432157,0.03945547,-0.0033557592,0.041370306,0.010380834
0.10865996,-0.04776416,-0.096700594,-0.17448282,0.15055807
0.05625703,-0.05872229,-0.034045212,-0.035767123,-0.031352036
-0.014898372,0.0363806,-0.01604525,0.012480142,-0.01922813
0.044101544,-0.027539393,-0.039096437,-0.010737428,-0.015927438
0.049481075,-0.04458474,0.10587674,-0.1390112,-0.046142664
0.0017333357,0.087638184,0.0021989178,0.018849226,-0.04915163
-0.006418701,0.021709042,-0.026899813,0.038767815,-0.010521695
0.07947507,-0.031481966,-0.0884792,0.08975726,-0.14835067
-0.011585058,0.06943472,0.068947166,-0.09452029,-0.060612537
-0.010421298,0.030596085,-0.03907031,-0.021711474,-0.02081796
-0.0073223496,0.0015887009,-0.0071518016,0.01607931,-0.0150723355
-0.019871645,-0.015905688,0.016648814,-0.031028686,-0.004338957
0.027089426,-0.021636495,-0.006433792,0.026785292,-0.008579312
-0.15171593,0.120683156,-0.060555857,-0.20797457,0.10566558
-0.004142361,-0.011318951,-0.018257009,0.025555272,-0.016785474
0.042654533,0.039457534,-0.07091104,0.016466066,0.002648553
0.057305194,-0.010353995,0.03584948,0.011032009,0.025453357
-0.097326696,0.08369413,-0.10239081,0.044067346,-0.0508033
0.09409163,-0.020696899,-0.15100595,-0.12250479,0.008631183
-0.0221337,-0.046361417,-0.023435688,-0.06599105,0.07810421
-0.005623849,0.04070951,0.024649488,0.016737523,-0.0021961739
-0.030667963,-0.070197836,0.00900238,-0.055511132,0.025412917
0.0763618,-0.048147436,0.0041646822,0.0017061054,-0.07875812
0.029838039,0.004723284,0.012500997,0.016443236,-0.006793701
0.09317977,-0.05701334,-0.031099766,-0.12089281,-0.110371605
0.051317953,0.06367486,-0.12996899,0.06385551,-0.10793871
-0.036693387,-0.053864777,-0.03371597,0.05405785,0.04017599
-0.00469879,-0.02154278,0.00886099,0.009539634,-0.0038120856
-0.030149847,0.03842297,-0.028717723,0.04561183,-0.00335014
0.0066565406,-0.023362162,-0.008239317,-0.025290092,0.027119698
0.040727917,0.032663863,0.027185591,-0.008611245,-0.029067036
-0.08106314,-0.1497207,0.1046098,0.053752594,-0.1663475
-0.021490056,0.010813791,-0.04483999,0.013953242,-0.013616778
-0.059731364,-0.026801577,-0.07006612,-0.023144947,0.054758016
-0.13907707,0.07544441,-0.10419082,0.04581787,-0.080214456
0.008417289,-0.020777354,-0.0017464131,-0.035362285,-0.0007493433
-0.0010212478,-0.025683515,-0.0039088707,0.013000543,-0.042967383
0.012456376,0.02791532,-0.016928721,-0.042249292,-0.04952117
0.068781905,-0.059529003,0.025935192,-0.056581065,0.022478169
-0.029421806,-0.009049583,-0.028532319,-0.012485159,-0.040305253
-0.0038664658,-0.00064510957,0.04305068,-0.064454116,0.018489204
-0.00798328,-0.010060452,-0.04282965,0.006074217,0.012590252
-0.0025084857,-0.01060444,-0.008286587,-0.022484295,-0.040848255
-0.0058585536,-0.033337753,0.021497903,-0.00032381347,-0.04772347
-0.0078599285,-0.009969253,0.031334985,-0.0035123376,-0.00061378954
-0.0011150104,0.018148756,-0.028506616,-0.013676513,0.028778829
-0.09762908,-0.15331538,-0.10697254,0.1458422,-0.018050523
-0.021725645,-0.0027814358,-0.01652385,-0.020554556,0.0036459665
-0.00841906,0.014555772,-0.0064421683,0.012252889,-0.0389066
-0.015368974,0.023024581,-0.024568092,0.050734144,-0.014801184
-0.008126926,0.016227381,0.02924201,-0.056454062,-0.013074717
-0.059753697,0.09327884,-0.09446714,-0.06136663,-0.023504462
-0.024630338,0.078823455,-0.0723779,0.050132297,-0.028486073
0.021229746,0.0001812978,-0.024281055,0.00036668993,0.033424
0.12553369,-0.11741883,-0.119305424,-0.022973673,-0.0037804947
-0.009433839,-0.030546382,0.017998796,-0.019147662,0.027728748
0.028263249,0.010659216,0.046061814,-0.11396072,-0.070465185
-0.08650477,0.10377251,-0.10825055,-0.073010534,-0.0021575117
0.04620793,-0.053975467,-0.010959476,0.06596379,0.008482804
0.015908515,0.09414003,-0.040782813,-0.08442979,-0.07052243
0.027941644,-0.050640278,0.08181936,0.016406838,-0.034130227
0.003352121,-0.006112742,0.023315096,-0.0020190983,-0.001146444
0.0016712181,-0.022484545,-0.02825185,-0.001233222,0.016012294
-0.0043818243,0.0018895589,-0.028428929,0.021170381,0.018639605
-0.028346147,0.070020646,0.042693477,-0.09183751,0.06617508
0.09938534,-0.009868643,0.041234564,-0.040994123,-0.058732554
0.014553218,-0.025771113,-0.0041901115,-0.011438658,0.026788274
0.090102874,-0.09824744,-0.13805161,0.11498375,-0.11847982
0.11853365,-0.06038232,-0.03413962,-0.029547308,-0.05444503
0.03618001,-0.028005062,-0.029728195,-0.017434947,0.041274197
-0.0030287285,-0.07828335,-0.033656947,0.051093683,-0.01426219
-0.011965505,-0.0059326002,0.016123103,0.0055909744,0.0010900677
-0.024580711,0.047971286,-0.079934925,0.047722843,-0.120588556
0.0014271036,0.03431777,0.02852602,-0.0014815708,0.0046019345
-0.005412254,0.049667116,-0.16482618,0.038129933,-0.050718844
-0.10807091,0.08005903,-0.03984382,-0.09871977,-0.07623561
0.073479034,0.015411306,-0.07835799,0.015280506,0.028008815
0.05461379,0.009662148,-0.025747094,-0.04608312,-0.02770693
0.022001717,0.013001346,0.035649884,-0.015970567,0.007882817
0.0024599605,0.051112883,-0.0064977068,0.012586965,-0.010366854
-0.10048485,-0.045197204,-0.13376486,0.045497816,0.08850984
0.073314086,-0.021242928,-0.09564531,0.032509033,-0.05967706
-0.0092448415,-0.005583329,0.024989901,-0.052814648,0.048824452
0.021078704,0.007833094,-0.055161636,0.01809401,-0.008696915
0.02756522,-0.04945786,0.00030405715,0.013033273,0.0021766492
-0.041851323,0.009678578,-0.10614621,0.03982193,-0.09475151
-0.06401141,0.07145647,0.03232741,-0.07439139,-0.11191752
-0.054267947,-0.0012950231,0.08569991,-0.058988918,-0.08705539
-0.014244582,0.05868516,-0.07086043,-0.13778962,-0.0097283395
-0.03961538,-0.16523324,0.05388778,0.11165154,-0.079140365
0.073955625,0.08718584,-0.13767141,-0.11240291,-0.053338926
-0.0002619534,0.02722184,0.016131807,0.025703678,0.02332245
0.032039735,0.04624454,-0.06619729,0.011216635,-0.030121703
0.022703877,0.020172564,0.010271904,-0.017130302,-0.03201203
0.06945245,0.105668806,-0.087478034,-0.14396502,-0.078690425
0.022677343,-0.046819773,0.026362425,-0.014961358,-0.04562912
-0.013330001,-0.009673712,-8.820665e-05,-0.026286382,0.034632955
-0.017425342,-0.014093495,0.034207515,-0.02158342,-0.00013363492
-0.036344066,0.045080837,-0.061710525,0.024742346,0.0063965647
-0.014495466,0.012102319,0.0396799,-0.045737457,-0.05293698
-0.0072611026,0.03737211,0.029183514,-0.018889513,-0.0063527143
-0.08072133,0.022412105,-0.07633079,-0.12050113,0.12823439
-0.14001496,-0.10086726,-0.019635806,-0.0400013,0.05462769
-0.006265106,-0.052614853,0.0060513685,0.014692418,-0.012941191
0.014527591,-0.045338076,0.05581458,0.020482711,-0.06997757
-0.006721825,0.013378551,-0.009178602,0.014631636,-0.047158547
0.019898111,-0.021693658,-0.015654957,0.0116929235,-0.02869094
0.00075734826,-0.025631538,-0.18600963,-0.095032424,0.14376673
0.059085067,-0.029870618,-0.10545687,-0.026559135,-0.09700608
-0.027719041,-0.004605764,-0.00041919385,0.023068395,-0.023852859
0.057176787,0.00022892724,-0.0069989422,0.006385571,0.008402571
-0.005275077,0.039294437,0.0034256137,0.0013712001,-0.0002162092
-0.035936333,0.0440914,-0.03365068,0.014562535,-0.0012443945
-0.01015586,-0.006204627,0.03607322,0.007982154,-0.054426454
0.01676915,-0.09501275,0.05331017,-0.028669437,0.059023973
-0.033331532,-0.038763218,-0.013513198,0.006831642,-0.056379214
0.0052015795,-0.009296833,-0.04575456,0.0042465325,-0.0038557278
0.028126413,0.028088463,0.0102720745,-0.0009139832,-0.0046124896
0.0068238326,-0.0039986596,-0.04653426,-0.030697066,-0.04465573
0.021370491,0.09870799,-0.06101618,-0.032738283,-0.13635978
-0.14389755,0.07315461,-0.12186865,0.10199283,-0.15599369
0.025729984,-0.033004723,-0.014568723,-0.017806942,-0.03454952
0.014573476,0.057579592,-0.025113292,-0.0896165,0.060925886
-0.06398593,0.08593205,-0.13520333,0.106740884,-0.08230845
-0.055913225,-0.00836156,-0.025979767,0.0034636438,0.054379158
-0.09557938,0.037387308,0.039671566,-0.04029257,-0.04554879
0.0003148225,-0.0373207,-0.04095211,-0.021855874,0.020752758
-0.019785102,-0.012256625,-0.01679566,-0.029700331,-0.038869057
-0.05194793,0.044528894,-0.012425518,0.04253975,0.06482151
0.026625702,0.008497815,0.013539365,-0.009919449,-0.043591406
0.0064723073,0.01005125,0.04565439,-0.0069306456,0.016196206
-0.01727908,-0.0033601818,-0.0019188046,0.025820361,-0.026439438
-0.012256566,0.006325122,-0.0107405605,-0.0002510738,0.009672937
0.08454075,0.0071487078,-0.1296974,-0.053015273,0.061257336
0.049391054,0.0048268354,0.034997176,-0.0361005,-0.0060057663
-0.095989905,0.0172611,0.12573895,-0.117151245,-0.0943968
0.027837913,0.01833363,-0.030498754,-0.0034797466,-0.0016545219
0.00020135459,0.106987506,-0.11525221,-0.029608589,-0.008469838
-0.015870046,-0.026023375,0.014309216,0.0066910847,-0.022320174
0.018247519,0.032450516,0.0051416964,0.008295416,-0.005642585
-0.03301033,-0.0053100656,0.033926584,-0.019691218,-0.009773015
0.107961215,-0.06861607,-0.13474002,-0.06448054,-0.0972892
0.02878426,0.031581968,-0.10581849,0.09013905,-0.17603558
0.008031042,0.012168645,0.023667417,0.011114176,0.0053458633
0.020285834,-0.025152247,0.011087632,0.027065482,-0.0049120737
-0.013154964,-0.024909135,0.015710222,0.048450798,-0.02281479
-0.014629534,-0.039229624,0.05416093,-0.038623646,-0.04466025
0.059892755,-0.06520679,-0.051099136,-0.044476334,0.027118856
-0.0062808148,0.028389508,-0.020568777,-0.011817437,0.037515238
0.009628666,-0.012296241,0.094146974,-0.03611035,0.032235414
0.14748216,-0.15343681,-0.07475685,-0.07980098,-0.12786679
-0.18565206,0.06682684,0.04353388,-0.08307354,0.06855637
-0.047594942,0.11160097,0.1070232,-0.10455668,-0.12572427
-0.021836871,-0.013466816,-0.0016219215,-0.029302018,0.03831773
0.08795875,-0.055951245,-0.043603484,-0.0145999985,-0.07754453
-0.060503997,-0.06712682,0.028359693,0.07086689,-0.009678327
-0.04329359,0.0106797945,-0.01793447,0.060009502,-0.009061118
-0.0118028475,-0.030827565,-0.0025721395,-0.004711021,-0.0102962805
-0.06031144,-0.015954215,-0.010202726,-0.017377997,-0.012785903
0.0027380527,0.01323139,-0.040299874,-0.04700846,0.021261118
-0.0129400175,0.027921576,0.040300705,-0.03593094,0.03723204
-0.044037208,0.07765237,-0.013138389,-0.008276081,-0.14365387
-0.064394414,-0.012312445,-0.02028531,0.006920276,0.053187698
-0.033758886,0.02065631,0.007961406,0.011554346,-0.014552813
-0.041701738,0.03177882,-0.05401062,-0.019960908,0.011512161
0.02072258,0.007806716,-0.008548964,-0.022821426,0.043167904
-0.031881362,-0.0071817786,-0.018097663,0.017145675,-0.0173399
0.0071301553,0.07132091,-0.07638408,0.047442675,-0.063011296
0.0039690724,0.023534471,0.0012042985,0.020274023,0.008970375
0.008665765,0.043921947,-0.18717718,-0.031653523,-0.024820914
-0.0029278477,0.08292418,-0.046509746,0.0055101328,-0.07131222
-0.014875977,-0.014605035,-0.034697592,-0.020647531,-0.013247765
-0.032172818,0.01961315,0.022046026,-0.07404372,-0.05412027
-0.005748033,-0.036544066,0.034921903,0.03698325,-0.11470481
-0.016360242,-0.022200156,-0.002639843,0.005248727,-0.021883957
-0.04160111,0.015783513,-0.016103394,-0.01086592,0.0034848745
-0.04248899,-0.035434794,-0.008435323,0.05369526,0.005418053
0.08724161,-0.00030727335,-0.119603306,-0.022578629,-0.012306413
-0.018209554,-0.029997947,-0.012275704,0.0017103325,-0.03784901
0.08799904,0.06394019,-0.11460062,0.072601326,-0.17255428
-0.03496922,0.0014103507,0.024769073,-0.014574706,-0.0048940764
0.019162191,0.013836296,-0.02072707,-0.012037516,-0.010979086
-0.022341764,0.027413335,-0.07273632,0.056381006,-0.04427104
0.012657151,0.0091077415,-0.0010376268,0.0033181617,-0.005799863
-0.04964223,0.010714452,0.003041235,0.00089001557,0.008771721
-0.11261076,-0.026086232,-0.065489866,-0.09825391,0.08513821
-0.007219529,-0.023360904,-0.07885476,0.054531876,-0.008518177
-0.02120072,-0.010878656,0.02757762,-0.009386594,0.019515239
-0.017335644,0.012536222,0.021899799,0.0023357957,0.014968915
-0.02415638,-0.020756152,0.061575003,0.018905228,0.011814161
0.01813928,-0.02389484,-0.025539562,0.044018667,-0.023355907
0.015189218,0.010938459,0.014952228,0.004094669,-3.760131e-05
0.03252703,0.064836115,-0.14595267,-0.07253719,-0.1522429
-0.014308477,-0.03291588,0.02173089,-0.019625675,0.0034208393
-0.05106932,-0.08215583,0.027625935,-0.011524036,0.018423388
0.013713632,0.0036376193,-0.02634701,0.005091381,-0.031896573
0.014923423,0.04403522,-0.00785738,-0.026175281,-0.026891638
-0.047820378,-0.019748535,0.01097442,-0.0016278423,-0.04842713
0.06296771,-0.013376138,-0.04047913,-0.020075692,-0.03625701
0.020104263,-0.047070514,0.007146713,-0.00511545,0.0059412573
0.07435154,-0.03783731,-0.08599635,-0.028229618,0.10991834
-0.098551825,-0.085351154,0.05984706,0.1565084,-0.1974838
-0.012690117,-0.014968857,-0.008381773,0.020884832,0.0073639387
-0.02377362,0.004797118,0.021170214,0.05846748,0.016017755
-0.03324531,-0.00013035617,-0.0008057955,-0.013620601,0.043990195
0.00284047,0.021681322,-0.042163707,0.020573108,0.019973379
-0.048295513,-0.019888157,-0.009559112,-0.0124159055,-0.019641617
0.00440922,-0.01335694,0.0152444355,0.013243481,0.0033034696
-0.088452704,0.00090454775,-0.005132203,0.048842244,0.052345768
0.05859361,-0.034448214,-0.029429404,-0.010101956,-0.04260305
-0.015408374,0.018291717,0.042418875,0.11099588,-0.026285129
0.01333057,-0.006903089,0.007710317,-0.0046203327,0.015806304
-0.0614543,0.006390978,-0.074924186,0.013191003,0.065137886
-0.00021026013,0.009768424,0.013166618,0.0102495635,0.012244676
0.031139417,-0.0042109136,-0.001468137,-0.015142372,-0.014609428
0.010782524,-0.01943717,-0.012987058,0.02219099,-0.0014390493
0.023147939,0.022501122,-0.0064334823,0.0036146084,-0.0036482308
-0.007061622,0.04120186,-0.057031713,0.03279636,0.021036414
0.008265911,0.013710672,-0.023545457,0.036125064,0.002546604
0.027134994,0.0045645856,-0.011688541,0.009517046,-0.045376062
0.006787807,-0.05449532,0.0010714248,0.03605575,-0.035623357
0.02658919,0.013328204,-0.010593976,-0.04399621,0.07378185
-0.083786726,0.10889738,0.07649442,-0.102005824,-0.025197346
0.076830104,-0.09647108,-0.036696002,-0.09067941,0.09351083
0.013889359,-0.0014123874,0.014481016,-0.013925741,-0.03654703
-0.021137986,0.023246272,0.016938934,-0.040186282,0.014276878
0.0068174754,-0.11045825,0.052920386,0.07531542,-0.02444526
0.025148224,-0.026111633,-0.007072428,-0.039934423,0.045978114
0.04206016,-0.040225808,-0.017885545,-0.027657459,-0.015911197
-0.04279482,-0.079112396,0.072854415,-0.0023471129,0.045126345
0.009309414,0.015577859,0.021174237,0.03551031,-0.014112355
-0.059308592,-0.015047259,-0.01593029,0.03126035,0.020639898
0.058063306,-0.0152528845,0.054325987,0.04744787,-0.09851726
-0.038602125,-0.073631085,-0.13544,0.016824739,0.027438179
0.009395269,-0.0042046774,-0.0036733835,-0.01768939,-0.0013663532
0.09281253,0.010415206,-0.0036494343,-0.05577507,-0.07336094
-0.016842244,-0.026142143,0.00924142,0.009836357,0.004048302
-0.008895842,0.005182078,0.02935627,-0.084431656,-0.075542934
0.02104504,-0.017044755,-0.007525554,0.029566651,0.024790576
-0.049618103,0.12693141,-0.07832085,-0.1510852,-0.011096017
-0.022689858,-0.011299047,-0.034440737,0.007629098,0.041691136
-0.117571376,0.10264781,-0.12768057,0.058404744,-0.1974036
0.0012736842,-0.044270243,0.006939768,-0.008472055,-0.047017068
0.03901392,-0.031387456,-0.018132612,-0.049667805,-0.06266227
-0.031464454,0.00011602687,0.0050588385,0.017613279,-0.0074143726
0.13402916,-0.14332935,-0.10659103,-0.020583877,-0.1292361
-0.0026067204,0.016529927,-0.008994174,0.0111634815,-0.05015917
0.04533397,-0.026004292,-0.0027128605,-0.030802054,-0.011435361
-0.052915655,-0.03580666,0.012922942,0.015636342,-0.013346624
0.0041125775,-0.029593775,0.017505778,-0.032544803,0.06674198
0.020028604,-0.045541584,-0.005759861,0.017871704,0.0014346557
-0.024480542,0.03157907,0.047128018,0.021401882,-0.0023598108
0.05133167,0.00016979763,-0.093925536,0.024489403,0.05465134
0.049208753,-0.037185308,0.018909005,-0.041252088,-0.032139577
0.06923161,0.051314745,0.02373593,-0.049628,0.0027706267
-0.0055727246,-0.01127862,-0.016915606,0.019881759,-0.026250273
-0.009815377,0.0015428418,-0.02896839,0.006901484,0.0023776558
0.018152295,-0.02824739,-0.004811553,-0.0063009067,-0.022209628
-0.011421127,-0.120557025,-0.0361535,0.06482104,0.093883745
-0.0072231884,0.0008382253,-0.026340075,0.006619614,-0.018675301
0.028344544,-0.015451581,0.06809247,-0.004232067,-0.016092576
0.029044311,-0.019079,-0.020558897,-0.022060327,-0.033312805
-0.09933647,0.10002818,-0.009888193,-0.08143796,-0.12016025
-0.019724503,0.054583825,0.0070764325,-0.04413293,-0.052851744
0.007472456,-0.0131700905,0.026951589,0.017935682,0.025895203
0.023431104,0.01944971,0.04865732,-0.035059232,-0.011287807
0.025836498,0.013063178,-0.006453433,-0.018038452,-0.039558634
-0.11544875,0.018240204,-0.08872502,-0.13208716,0.13738328
-0.10765726,0.058151808,0.026712364,0.09049992,-0.18656823
0.041652422,-0.017774174,-0.0016460246,0.010206573,0.027941993
0.03797639,-0.052070502,0.028414296,-0.055660505,-0.012408767
-0.048560757,0.026893366,-0.0036950423,-0.0045321025,-0.0016112981
-0.024006378,-0.0020818883,0.0026038848,0.02586529,0.006687205
-0.04957482,-0.0039737746,-0.010395231,-0.013635357,0.022671882
-0.019413516,0.008338498,0.015802134,0.024804827,-0.01769373
-0.17061216,0.033509757,-0.1037534,0.07484504,-0.051974874
-0.056138087,0.032053187,-0.0017647515,0.010739976,-0.050872926
-0.040156152,-0.045276552,-0.020341866,-0.0040876884,0.028960204
-0.043386016,0.024452252,-0.02273417,-0.020513296,-0.043742497
0.042342164,-0.01801467,-0.00565431,0.012895455,0.0038364264
-0.11676673,0.13845864,-0.09127842,-0.030404214,-0.14204983
-0.007678815,-0.032964803,-0.033915613,0.027705807,0.008851189
0.021832056,0.011500207,-0.0014015548,0.0062850765,-0.003724252
-0.01356676,0.0082794465,0.04246678,0.011131511,-0.024828034
0.03609056,0.011306283,-0.031338386,-0.01648185,0.0149468
-0.0049774665,0.021832123,-0.041429933,0.016710004,-0.023789676
-0.032389116,-0.017732877,0.023179345,0.039312907,0.03435157
-0.007384161,-0.018731078,-0.0053513627,-0.008736583,-0.031175433
-0.0036620079,-0.012587732,0.010544858,-0.02134131,0.023044638
0.031453278,-0.044335753,-0.04298484,-0.023611162,-0.021404171
-0.014658366,-0.035040207,0.050465796,-0.10145722,-0.10171642
-0.047068175,0.015412304,0.053187046,-0.04506248,0.02408768
-0.043866742,-0.023969075,0.026188262,0.02415141,0.022079144
0.03544257,0.07748831,-0.018061945,-0.03317779,-0.0077574993
0.011701172,0.048636783,-0.0010963079,-0.024736784,0.034760755
-0.049507033,-0.033461668,0.0280466,-0.012073694,0.011005381
-0.061447766,-0.13454413,0.027516374,-0.020368902,0.07149634
-0.03322631,0.024033392,-0.1171582,0.06778335,0.028377878
-0.075746246,0.020400118,-0.011339993,0.026807418,0.01962392
-0.080605365,-0.050245866,-0.11345339,0.10007167,0.0049516666
-0.12702034,-0.020794656,-0.07190216,0.05848475,-0.0035541228
0.05414142,0.05601241,-0.004578106,-0.013983856,-0.029008402
0.02442735,0.016754836,0.0071459063,0.020807229,-0.0037848738
-0.029847762,0.033800412,2.4355784e-05,0.0083699105,-0.009210923
0.0036463179,-0.045849986,0.0726974,0.009079451,0.009869942
0.019581417,0.007879256,0.015514066,0.010601149,-0.018203883
0.009580171,0.017607514,0.052060224,-0.07705387,-0.028246364
0.029464778,0.056987926,-0.12494553,-0.08777405,0.07089214
-0.010341008,0.039212484,0.044858158,-0.028422575,-0.0587752
